tree
version=v4
num_class=1
num_tree_per_iteration=1
label_index=0
max_feature_idx=11
objective=binary sigmoid:1
feature_names=day_sin day_cos rain temp temp_max temp_min humidity pressure wind wind_dir_cos wind_dir_sin radiation
feature_infos=[-0.99999073973619002:0.99999073973619002] [-0.99996295911626565:1] [0:32.899999999999999] [-6.3166666666666664:26.574999999999999] [-1.5:34.700000000000003] [-9.5:19.800000000000001] [50.708333333333336:100] [971.03333333333319:1041.7] [2.5541666666666667:38.804166666666667] [-0.99999973557516797:0.99106098200739878] [-0.99999894230081221:1] [51:8203]
tree_sizes=3361 3400 3405 3396 3375 3338 3387 3383 3394 3377 3412 3362 3384 3422 3390 3387 3440 3386 3376 3400 3376 3413 3389 3411 3403 3425 3421 3408 3416 3407 3393 3379 3402 3412 3417 3383 3406 3424 3390 3417 3432 3386 3390 3415 3393 3424 3391 3406 3420 3396 3387 3405 3414 3383 3362 3421 3398 3371 3411 3403 3385 3423 3439 3419 3418 3432 3427 3394 3413 3410 3449 3385 3384 3374 3392 3431 3404 3405 3414 3426 3398 3411 3418 3412 3418 3413 3426 3431 3428 3383 3428 3401 3432 3400 3407 3408 3416 3442 3405 3386 3440 3439 3427 3392 3396 3370 3374 3379 3433 3382 3418 3417 3431 3415 3432 3400 3400 3414 3361 3405 3387 3438 3420 3434 3366 3399 3372 3384 3353 3442 3413 3416 3402 3396 3408 3389 3412 3420 3369 3393 3396 3424 3432 3440 3402 3353 3378 3412 3429 3405 3405 3448 3378 3402 3400 3405 3389 3382 3388 3387 3427 3415 3439 3418 3405 3411 3412 3395 3407 3414 3382 3416 3370 3398 3377 3408 3384 3426 3396 3411 3385 3410 3367 3380 3428 3418 3410 3372 3399 3428 3428 3369 3392 3357 3394 3413 3435 3414 3412 3378 3399 3377 3409 3422 3425 3406 3391 3409 3422 3399 3336 3370 3397 3378 3396 3398 3370 3404 3347 3414 3429 3432 3421 3420 3416 3432 3411 3444 3407 3432 3407 3384 3387 3387 3384 3339 3374 3394 3374 3316 3393 3423 3377 3376 3387 3374 3378 3372 3409 3378 3377 3329 3352 3364 3300 3386 3417 3327 3414 3300 3392 3332 3366 3403 3404 3394 3370 3380 3391 3323 3377 3409 3401 3401 3390 3397 3378 3384 3382 3356 3409 3324 3367 3347 3351 3390 3366 3354 3363 3382 3390 3382 3358 3387 3416 3431 3428 3417 3402 3408 3401 3416 3359 3408 3427 3381 3395 3417 3372 3418 3352 3417 3415 3406 3388 3389 3382 3420 3391 3390 3393 3389 3388 3307 3387 3388 3386 3407 3378 3414 3441 3399 3379 3418 3427 3414 3378 3375 3413 3372 3388 3362 3397 3375 3403 3393 3341 3434 3419 3388 3279 3387 3326 3342 3408 3411 3417 3415 3389 3404 3341 3402 3375 3414 3365 3387 3366 3370 3427 3417 3387 3367 3399 3400 3346 3432 3347 3289 3359 3365 3424 3369 3423 3403 3390 3342 3350 3331 3335 3308 3363 3361 3370 3385 3402 3407 3366 3397 3388 3384 3406 3406 3382 3377 3412 3365 3431 3437 3425 3380 3337 3387 3340 3402 3391 3384 3420 3397 3429 3335 3426 3382 3352 3390 3401 3352 3318 3353 3339 3376 3338 3333 3338 3363 3422 3413 3420 3422 3416 3376 3396 3402 3384 3341 3411 3305 3358 3350 3321 3401 3336 3381 3401 3409 3337 3354 3363 3360 3355 3346 3321 3377 3395 3334 3330 3440 3429 3439 3393 3433 3310 3335 3307 3361 3316 3367 3429 3406 3443 3376 3353 3357 3375 3425 3383 3412 3411 3409 3410 3398 3344 3381 3377 3374 3403 3332 3325 3304 3396 3380 3312 3362 3396 3434 3435 3363 3372 3391 3422 3427 3377 3373 3364 3336 3314 3351 3414 3356 3355 3404 3398 3361 3382 3419 3313 3336 3378 3364 3368 3327 3365 3302 3349 3351 3405 3345 3420 3368 3339 3361 3409 3351 3396 3349 3395 3400 3353 3350 3354 3345 3387 3390 3393 3335 3371 3382 3377 3408 3394 3386 3441 3311 3371 3394 3324 3398 3400 3441 3433 3391 3373 3386 3394 3390 3399 3305 3411 3357 3349 3333 3383 3409 3367 3346 3348 3380 3423 3381 3381 3391 3375 3404 3377 3371 3367 3344 3309 3402 3326 3380 3355 3373 3370 3379 3386 3401 3406 3341 3303 3319 3403 3340 3299 3334 3400 3385 3367 3295 3331 3401 3346 3326 3336 3309 3304 3364 3423 3392 3392 3368 3371 3368 3373 3336 3407 3396 3364 3350 3355 3307 3352 3360 3410 3384 3441 3352 3386 3370 3358 3349 3327 3371 3368 3404 3377 3436 3405 3384 3377 3474 3446 3447 3449 3372 3427 3371 3360 3415 3347 3309 3420 3384 3379 3408 3337 3383 3391 3338 3415 3357 3249 3293 3366 3360 3296 3327 3345 3389 3367 3388 3331 3290 3396 3405 3424 3389 3343 3390 3275 3264 3354 3312 3353 3361 3362 3433 3410 3288 3397 3296 3345 3302 3386 3451 3414 3325 3313 3331 3380 3335 3351 3286 3350 3404 3324 3384 3378 3356 3310 3385 3355 3340 3374 3386 3326 3374 3356 3388 3326 3360 3335 3352 3310 3290 3390 3392 3364 3360 3342 3362 3295 3381 3350 3410 3344 3372 3320 3405 3370 3349 3335 3344 3329 3382 3406 3295 3371 3372 3372 3306 3322 3299 3355 3381 3388 3359 3317 3351 3264 3324 3299 3353 3324 3348 3299 3402 3372 3357 3376 3360 3343 3385 3344 3380 3374 3299 3323 3337 3337 3317 3368 3366 3342 3289 3240 3377 3365 3309 3353 3377 3378 3375 3343 3371 3323 3381 3414 3390 3345 3398 3357 3331 3356 3365 3405 3356 3326 3396 3344 3314 3297 3379 3310 3378 3348 3448 3318 3354 3364 3396 3372 3372 3366 3362 3351 3338 3341 3372 3385 3321 3350 3381 3347 3396 3374 3345 3326 3308 3311 3380 3323 3312 3386 3318 3326 3392 3365 3356 3425 3338 3307 3317 3287 3250 3350 3368 3371 3340 3364 3349 3335 3416 3406 3416 3364 3303 3352 3397 3302 3368 3352 3408 3382 3381 3370 3333 3295 3352 3344 3314 3372 3405 3344 3310 3371 3395 3391 3362 3420 3398 3312 3328 3358 3401 3454 3249 3351 3421 3339 3349 3368 3305 3380 3415 3401 3304 3388 3335 3332 3386 3285 3357 3303 3321 3318 3410 3415 3406 3402 3394 3325 3390 3398 3398 3374 3297 3301 3346 3392 3338 3326 3359 3312 3268 3297 3343 3404 3349 3331 3330 3354 3368 3310 3381 3370 3444 3380 3368 3313 3352 3321 3321 3334 3322 3277 3389 3326 3326 3330 3347 3357 3374 3378 3386 3399 3397 3404 3395 3414 3316 3345 3351 3375 3326 3315 3377 3397 3362 3327 3410 3345 3249 3374 3322 3345 3296 3304 3377 3359 3367 3321 3310 3379 3384 3314 3342 3394 3330 3340 3392 3313 3293 3309 3297 3252 3304 3249 3364 3291 3340 3371 3283 3355 3395 3328 3312 3375 3377 3313 3369 3325 3351 3364 3377 3385 3346 3309 3350 3349 3344 3393 3440 3338 3359 3324 3338 3396 3326 3294 3372 3379 3315 3347 3397 3354 3312 3394 3364 3360 3262 3389 3374 3380 3379 3417 3328 3350 3353 3350 3278 3319 3341 3359 3292 3322 3321 3411 3420 3368 3372 3295 3346 3294 3354 3364 3375 3354 3358 3329 3365 3294 3251 3298 3304 3388

Tree=0
num_leaves=31
num_cat=0
split_feature=7 7 9 9 7 7 2 11 6 5 11 8 0 9 4 5 9 8 8 9 3 2 6 7 3 11 3 0 4 3
split_gain=609.93 99.2613 39.4474 34.0155 26.9011 25.3042 24.3042 25.4457 21.1433 19.649 18.4647 25.3799 25.357 22.9169 20.8841 19.0862 18.3748 39.2309 18.2208 15.2947 22.8312 18.1829 14.4717 14.3795 17.7685 13.7095 13.5936 13.0393 14.5676 15.1591
threshold=1017.5833333333335 1007.5875000000002 0.50031482958899409 -0.84533954268010836 1021.6187500000002 991.0562500000002 3.8500000000000001 941.50000000000011 93.479166666666671 5.1500000000000012 4979.5000000000009 12.704166666666667 0.80392051724781077 -0.50345981101467385 12.65 11.550000000000002 -0.59336031228108188 19.168750000000006 24.341666666666672 0.54189154475235313 14.80625 1.0500000000000003 71.145833333333357 1014.81875 16.889583333333338 4097.5000000000009 10.606250000000001 0.88606241628642846 6.9500000000000011 12.902083333333335
decision_type=2 2 2 2 2 2 2 2 2 2 2 2 2 2 2 2 2 2 2 2 2 2 2 2 2 2 2 2 2 2
left_child=1 2 5 27 8 9 10 -8 19 -1 11 25 23 15 22 -13 -7 -18 -16 -2 21 -21 -15 -12 -25 -5 -4 28 -3 -30
right_child=4 3 26 6 -6 16 7 -9 -10 -11 12 13 -14 14 18 -17 17 -19 -20 20 -22 -23 -24 24 -26 -27 -28 -29 29 -31
leaf_value=0.0092458478657829347 -0.024517337715976494 -0.026259786948875909 -0.027020726770319164 0.005045487330404586 -0.03208700227946331 0.021166686571271527 -0.021445236624792557 0.016827590987479043 0.012294087209705351 -0.024617084078956183 0.0133771734766059 0.0039431088339992818 -0.032531296546624323 0.0076435360466599392 -0.038174530941830466 -0.022560314691513286 0.016964532863747137 -0.01068740904441849 0.0033474910944625525 -0.03545467938769916 0.015179365309252239 0.013074012806301816 -0.017416048603801994 0.0056213852699208162 -0.032683101008561269 -0.01604845425772556 0.0082893667418712166 -0.0093462379431964414 0.022145925010739361 0.0069597870209607421
leaf_weight=21.94224534928799 92.637321963906288 2.6389391273260108 10.555518612265589 75.132230862975121 144.30568593740463 251.21814708411694 7.0832302868366233 45.272454440593719 7.2214081287384024 8.7499286830425245 53.883015796542168 42.912963658571243 5.694552853703498 12.221027523279188 26.38939127326012 13.333111375570295 99.571669042110443 24.582136064767838 4.3051617294549933 10.000190377235414 10.415437594056128 3.3329209983348838 27.776879221200943 14.998620286583902 5.8334443867206565 13.610656544566153 5.8327306956052771 10.416151285171507 50.96557991206646 61.383158579468727
leaf_count=70 555 19 68 269 951 577 43 118 20 55 156 157 41 40 190 80 261 121 15 72 27 8 152 52 42 74 18 51 111 210
internal_value=0.000354654 0.00828083 0.0153214 0.00196387 -0.0260574 0.0165661 -0.00123109 0.0111573 -0.0187368 -0.000564627 -0.00348549 -0.00654649 0.00458169 -0.012257 -0.0197781 -0.00244918 0.0179912 0.011368 -0.0321133 -0.0208357 -0.00566014 -0.0225603 -0.00951571 0.00793469 -0.00565241 0.00155607 -0.0141244 0.01086 0.0128414 0.0140716
internal_weight=1164.22 896.303 422.452 473.851 267.913 406.064 348.447 52.3557 123.607 30.6922 296.091 215.681 80.4096 126.939 70.6925 56.2461 375.372 124.154 30.6946 116.386 23.7485 13.3331 39.9979 74.7151 20.8321 88.7429 16.3882 125.404 114.988 112.349
internal_count=4623 2990 1170 1820 1633 1084 1429 161 682 125 1268 977 291 634 397 237 959 382 205 662 107 80 192 250 94 343 86 391 340 321
is_linear=0
shrinkage=1


Tree=1
num_leaves=31
num_cat=0
split_feature=7 7 9 10 2 1 10 7 10 10 3 7 10 8 3 9 6 3 11 10 2 3 8 2 9 8 10 11 1 9
split_gain=585.895 94.06 37.9305 35.4118 30.5722 33.689 48.1539 27.361 24.7552 28.1065 24.6942 24.3343 30.3674 23.482 20.212 18.8388 18.5276 17.459 17.3973 24.814 19.8873 19.2497 18.4638 15.8966 14.7081 14.0977 14.0564 17.214 13.9403 13.193
threshold=1017.4916666666668 1007.5875000000002 0.50031482958899409 -0.52590465731277891 1.0000000180025095e-35 -0.46734190575957718 0.10705944342877487 1021.6187500000002 -0.81369300401479816 -0.28436394381672442 15.514583333333334 991.0562500000002 -0.79666174946796275 19.168750000000006 3.1312500000000001 0.32109510932384622 89.020833333333357 7.0354166666666682 4979.5000000000009 -0.89895332370041003 3.8500000000000001 13.247916666666667 9.9666666666666668 1.1500000000000004 -0.51659556285016206 22.28541666666667 -0.99845232474855583 4655.0000000000009 -0.33346877891818688 -0.078821574694374882
decision_type=2 2 2 2 2 2 2 2 2 2 2 2 2 2 2 2 2 2 2 2 2 2 2 2 2 2 2 2 2 2
left_child=1 2 11 14 5 29 -7 8 -2 16 23 17 13 -13 -3 -12 -10 -1 19 22 21 -21 -16 -11 -19 -23 -15 -28 -4 -5
right_child=7 3 28 4 -6 6 -8 -9 9 10 15 12 -14 26 18 -17 -18 24 -20 20 -22 25 -24 -25 -26 -27 27 -29 -30 -31
leaf_value=0.010559957274821081 -0.032539764130055181 0.014549804217030933 0.0091945542366793972 0.015603873022736749 0.013103807163862063 0.0090300998760213195 -0.033590904335756684 -0.031457720013674799 -0.006933207837934531 -0.03780992180889544 -0.019388959839638641 0.013397197174007985 0.020719853690760764 0.017844018521540567 0.0032061855610655242 0.018429115014126963 0.024536813288987793 -0.033999975647360015 0.0044363935914330486 0.00082562711274732927 0.015095267418356831 -0.02416530636498896 -0.024232994455593983 0 0.010058858409110938 0.0074247804996047028 -0.029356628159492814 0.0093546299117661779 -0.026718448899551089 -0.0089178139046803533
leaf_weight=19.303077563643459 34.717173799872398 21.524969264864922 5.6936725229024914 35.411171063780785 145.94724796712399 17.913774773478508 22.914735421538353 144.26854503154755 31.104602843523026 27.912120819091797 11.386956691741945 60.961135298013687 290.62684912979603 4.7214637547731426 11.248715966939924 8.0538590550422651 8.7480528056621534 7.776964485645296 53.464342653751373 51.105900958180428 19.440649703145027 27.9130789488554 47.492151454091072 4.8602228462696067 3.6103378087282145 5.9713090211153022 13.332934007048609 5.6935724318027487 10.692550361156462 10.276317998766897
leaf_count=59 234 59 17 95 427 57 157 951 144 201 66 175 669 10 41 18 15 56 193 200 52 169 286 19 10 19 88 17 69 50
internal_value=0.00034439 0.00817283 0.0150161 0.00199058 0.0075414 -0.00177029 -0.0148828 -0.0253466 -0.0181225 -0.0122873 -0.0218014 0.016237 0.0176345 0.00681431 -0.00339451 -0.00309751 0.000161514 -0.000556706 -0.00528207 -0.00853493 -0.00251687 -0.00679045 -0.0188454 -0.0321804 -0.0195395 -0.0182584 -0.00953843 -0.0173845 -0.0138536 0.00980124
internal_weight=1164.09 893.037 422.413 470.624 232.463 86.516 40.8285 271.052 126.783 92.0658 52.2132 406.026 375.336 84.7091 238.161 19.4408 39.8527 30.6904 216.636 163.172 104.431 84.9903 58.7409 32.7723 11.3873 33.8844 23.748 19.0265 16.3862 45.6875
internal_count=4623 2975 1170 1805 786 359 214 1648 697 463 304 1084 959 290 1019 84 159 125 960 767 440 388 327 220 66 188 115 105 86 145
is_linear=0
shrinkage=0.02


Tree=2
num_leaves=31
num_cat=0
split_feature=7 7 9 10 2 1 10 7 10 10 10 7 4 8 5 6 9 6 4 1 0 8 4 2 0 9 1 9 7 4
split_gain=563.285 90.3652 36.4804 33.9883 29.3854 32.3782 46.3646 26.2806 23.8214 27.0654 23.4121 23.1175 22.3123 18.9758 20.3748 17.8605 17.352 20.8721 18.6441 21.7888 17.2237 16.2955 16.2225 14.1999 13.7812 25.248 13.4633 13.3776 16.3077 13.2188
threshold=1017.4916666666668 1007.5875000000002 0.50031482958899409 -0.52590465731277891 1.0000000180025095e-35 -0.46734190575957718 0.10705944342877487 1021.6187500000002 -0.81369300401479816 -0.28436394381672442 -0.9677821976374883 991.0562500000002 19.650000000000002 24.597916666666674 11.950000000000001 89.020833333333357 -0.25671110758093213 71.437500000000014 9.7500000000000018 0.72064045540576316 -0.79356426026969629 10.685416666666667 10.050000000000002 1.1500000000000004 0.012910176522261252 -0.65248420778248917 -0.33346877891818688 0.52497644151771627 1012.4645833333335 11.450000000000001
decision_type=2 2 2 2 2 2 2 2 2 2 2 2 2 2 2 2 2 2 2 2 2 2 2 2 2 2 2 2 2 2
left_child=1 2 10 13 5 -5 -7 8 -2 15 29 22 23 14 16 -10 24 20 19 -19 -18 -14 -12 -11 -3 -26 -4 28 -16 -1
right_child=7 3 26 4 -6 6 -8 -9 9 12 11 -13 21 -15 27 -17 17 18 -20 -21 -22 -23 -24 -25 25 -27 -28 -29 -30 -31
leaf_value=-0.01527510602815077 -0.031927720188851906 0.01336904913244188 0.0090385025810182842 0.0096047176229975568 0.012844784569147023 0.0088594811630686512 -0.03296008504798012 -0.030856136897710208 -0.0067993862682627438 -0.037098792912782376 0.0093165144907399241 0.018791949359834862 -0.023631539886092151 -0.027639878592283479 -0.0047980367865846545 0.024100863379186713 -0.028969995930079741 0.018777326853459606 -0.028132028979112392 -0.023348647563054638 0.01131049292125438 0.010907542866971653 -0.022495584961406644 0 -0.027070870338935724 0.0070292899518388033 -0.026242244529274771 0.010636069128198767 -0.028667447934570125 0.0099139776651186139
leaf_weight=13.052438512444494 34.694410651922226 55.681444436311722 5.6934029161930111 45.683051019906998 145.93284802138805 17.912854969501495 22.905443280935287 144.16010892391205 31.102157145738602 27.057639330625534 21.799958080053333 343.71059691905975 8.6066523045301455 11.249016791582106 26.101395845413208 8.7462691813707334 3.8860656619071952 9.7195370346307772 20.964470148086548 8.0541473031043989 28.743585541844368 11.383448615670202 7.9124365448951712 5.1378997713327399 10.555116102099417 33.603863090276718 10.687046647071837 7.4973269551992408 22.074829280376434 19.438303723931313
leaf_count=70 234 161 17 145 427 57 157 951 144 195 69 836 54 73 116 15 28 22 135 50 87 34 49 21 68 114 69 22 143 60
internal_value=0.000336964 0.00801262 0.0147214 0.00195237 0.00739108 -0.001737 -0.0145957 -0.0248619 -0.0177768 -0.0120489 0.0159191 0.0173326 -0.0213888 -0.00332312 -0.00195759 0.000162027 0.001423 -0.0059855 -0.015804 -6.27707e-06 0.00549709 -0.00390408 6.27e-05 -0.0314991 0.00682475 -0.00131904 -0.0135898 -0.0123718 -0.0162991 -6.05422e-05
internal_weight=1163.75 892.859 422.294 470.565 232.434 86.5013 40.8183 270.889 126.728 92.0341 405.914 373.423 52.1856 238.131 226.882 39.8484 171.208 71.3678 38.7382 17.7737 32.6297 19.9901 29.7124 32.1955 99.8404 44.159 16.3804 55.6736 48.1762 32.4907
internal_count=4623 2975 1170 1805 786 359 214 1648 697 463 1084 954 304 1019 946 159 665 322 207 72 115 88 118 216 343 182 86 281 259 130
is_linear=0
shrinkage=0.02


Tree=3
num_leaves=31
num_cat=0
split_feature=7 7 9 10 2 3 7 10 10 3 7 10 8 3 0 9 8 8 8 2 5 5 1 10 1 2 7 7 10 1
split_gain=541.63 86.8873 35.084 32.717 28.2349 31.4846 25.2528 22.9308 26.0961 23.0158 22.5433 28.5982 22.4036 19.1712 18.8041 17.7991 15.1274 17.386 23.7737 16.4305 18.4169 18.5268 16.1696 15.0658 33.5101 14.8295 14.5735 15.1191 13.8461 13.0072
threshold=1017.4916666666668 1007.5875000000002 0.50031482958899409 -0.52590465731277891 1.0000000180025095e-35 7.335416666666668 1021.6187500000002 -0.81369300401479816 -0.28436394381672442 15.514583333333334 991.0562500000002 -0.79666174946796275 19.168750000000006 3.1312500000000001 0.16705007855999737 0.32109510932384622 24.597916666666674 22.158333333333339 19.285416666666674 3.8500000000000001 7.3500000000000005 5.1500000000000012 -0.52705818521824699 0.089328798809355667 -0.49749486057528974 1.1500000000000004 1010.4354166666668 1016.1270833333334 -0.99845232474855583 -0.33346877891818688
decision_type=2 2 2 2 2 2 2 2 2 2 2 2 2 2 2 2 2 2 2 2 2 2 2 2 2 2 2 2 2 2
left_child=1 2 10 13 5 -5 7 -2 -9 25 14 12 -12 -3 -1 -11 17 18 19 20 21 -15 -22 -7 -25 -10 -21 -28 -14 -4
right_child=6 3 29 4 -6 23 -8 8 9 15 11 -13 28 16 -16 -17 -18 -19 -20 26 22 -23 -24 24 -26 -27 27 -29 -30 -31
leaf_value=-0.024093360770138537 -0.03134263491650692 0.014207922392734962 0.0088854080172178912 -0.028755021545832281 0.012591909020246607 0.013989781585039352 -0.030280211096921743 0.00016240756381742403 -0.036481803443333648 -0.018785494172897568 0.01288645946054698 0.019948321858967541 0.017655002857366545 -0.0083436909468825766 0.0090422994661704583 0.017980142553914377 -0.026992958516000955 0.012350428525753363 -0.029704004383449573 0.022749566654356332 -0.0068603159459068898 0.015267007797764454 -0.027386595730351515 0.0081194747466280109 -0.028619970788643756 0 -0.022327690706364312 0.020082159400092309 -0.017304974674384625 -0.025782598137169464
leaf_weight=8.7433369159698504 34.654267817735672 21.520938321948051 5.6929033547639873 13.458827659487723 145.90658120810986 30.682624518871307 143.98466670513153 39.840991497039795 27.850130930542946 11.378457292914392 60.935437425971031 290.3968241661787 4.721426576375964 25.9644735455513 21.935056954622269 8.0517526715993863 11.106973916292189 22.491737991571426 14.434945479035376 15.270763307809831 70.520207777619362 24.852589145302773 19.98507858812809 28.463539138436314 13.868760585784914 4.8602228462696067 7.4979707151651365 4.4420976042747498 19.02283775806427 10.677935302257536
leaf_count=55 234 59 17 89 427 85 951 159 201 66 175 669 10 123 70 18 72 66 96 30 324 67 128 93 92 19 46 8 105 69
internal_value=0.000325921 0.00785189 0.014432 0.00190864 0.00724563 -0.00170161 -0.0243979 -0.0174465 -0.0118227 -0.0209996 0.0156068 0.0169527 0.00645013 -0.0032671 -0.000548136 -0.00292624 -0.00510694 -0.00375035 -0.00584031 -0.00357423 -0.00636339 0.00308216 -0.0117519 0.00347116 -0.00406891 -0.0310334 0.0102692 -0.00544441 -0.00951667 -0.0133337
internal_weight=1163.21 892.594 422.126 470.468 232.38 86.4738 270.62 126.636 91.9816 52.1406 405.755 375.077 84.6797 238.088 30.6784 19.4302 216.567 205.46 182.968 168.533 141.322 50.8171 90.5053 73.0149 42.3323 32.7104 27.2108 11.9401 23.7443 16.3708
internal_count=4623 2975 1170 1805 786 359 1648 697 463 304 1084 959 290 1019 125 84 960 888 822 726 642 190 452 270 185 220 84 54 115 86
is_linear=0
shrinkage=0.02


Tree=4
num_leaves=31
num_cat=0
split_feature=7 7 9 10 3 7 10 7 10 10 3 3 9 3 11 10 4 8 9 6 8 11 4 6 5 4 10 5 11 9
split_gain=521.02 84.7523 33.7501 31.817 25.4568 22.9436 22.1704 21.3981 20.6825 20.9757 22.7349 18.1144 17.2279 17.1693 15.8697 23.1338 17.648 17.6071 15.5386 14.7181 14.1906 20.6684 13.0853 13.0481 12.9999 12.8186 12.9333 12.8178 12.5793 15.4944
threshold=1017.5833333333335 1007.5875000000002 0.50031482958899409 -0.52590465731277891 1.7083333333333337 1021.6187500000002 -0.9677821976374883 991.0562500000002 -0.81369300401479816 -0.28436394381672442 15.514583333333334 3.1312500000000001 0.32109510932384622 7.0354166666666682 4979.5000000000009 -0.89895332370041003 18.150000000000002 9.9666666666666668 -0.51659556285016206 93.479166666666671 24.597916666666674 453.50000000000006 9.2500000000000018 81.937500000000014 13.850000000000003 12.65 -0.95746644309100071 4.5500000000000007 5162.5000000000009 -0.41469324265623903
decision_type=2 2 2 2 2 2 2 2 2 2 2 2 2 2 2 2 2 2 2 2 2 2 2 2 2 2 2 2 2 2
left_child=1 2 6 11 -5 8 27 13 -2 19 -11 -3 -12 -8 15 17 20 -13 -15 -10 21 -17 -23 -24 -18 26 -19 -1 -16 -30
right_child=5 3 -4 4 -6 -7 7 -9 9 10 12 14 -14 18 28 16 24 25 -20 -21 -22 22 23 -25 -26 -27 -28 -29 29 -31
leaf_value=-0.018003983238411785 -0.030674447671040703 0.013622472009571163 -0.013085153364037124 -0.031672059302206693 0.0081411455887949128 -0.029728132209845076 0.011923701518262211 0.018087089278261213 -0.0058120886081416499 -0.03030119048877879 -0.017972962063658941 0.0033589569192105958 0.01856941985612779 -0.032998669269173005 0.01941248426967453 -0.030767850402144067 -0.028924518899613446 -0.02587538623160051 0.013172646584951146 0.027488597450121839 -0.021423745235160552 -0.026583681017962872 0 0.019165257456723629 -0.0021428329505351236 -0.032983337940736455 0.0033580575548458926 0.0079724010576581114 -0.020183488364665225 0.0063371580329029406
leaf_weight=10.272691562771795 34.044426888227463 21.65517421066761 16.357606574892998 5.5475728362798682 229.24998962879181 143.74631971120834 18.603496879339222 343.34318047761917 33.18196938931942 31.821717157959938 11.093672677874567 11.246805801987646 7.9099806249141684 7.7651555836200732 14.578436717391012 4.5820151418447486 13.59814189374447 10.405978918075563 3.331712126731869 5.2720055878162375 7.4943624436855307 2.7773063480854026 24.8470458984375 34.704121306538582 16.511781468987465 25.788803070783615 11.382359847426413 22.207322850823402 11.664300277829168 27.489419281482697
leaf_count=58 230 60 86 40 756 951 54 836 151 214 64 41 17 56 33 33 90 67 8 6 46 20 99 82 71 178 42 72 68 94
internal_value=0.000316775 0.00764082 0.0141521 0.00180096 0.00702774 -0.0241381 0.0153049 0.0166818 -0.0173553 -0.011882 -0.0201917 -0.00330597 -0.00209491 5.10707e-05 -0.00509534 -0.00820558 -0.00239297 -0.0181533 -0.0183666 -0.000412126 0.00274884 0.00587916 0.00917444 0.0114187 -0.0151003 -0.0234089 -0.0106876 -0.000237015 0.00415384 -0.00162047
internal_weight=1162.47 895.405 421.881 473.524 234.798 267.07 405.524 373.044 123.324 89.2793 50.8254 238.726 19.0037 29.7004 217.071 163.339 104.515 58.8239 11.0969 38.454 74.4049 66.9105 62.3285 59.5512 30.1099 47.5771 21.7883 32.48 53.7322 39.1537
internal_count=4623 2990 1170 1820 796 1633 1084 954 682 452 295 1024 81 118 964 769 441 328 64 157 280 234 201 181 161 287 109 130 195 162
is_linear=0
shrinkage=0.02


Tree=5
num_leaves=31
num_cat=0
split_feature=7 7 9 0 10 2 3 1 1 7 1 9 5 6 1 5 4 10 7 7 7 6 3 5 0 5 4 9 7 2
split_gain=531.374 103.887 41.0621 32.5481 31.9045 25.634 24.4716 27.5365 20.9435 18.9883 34.0098 23.8034 14.8204 20.0865 14.3559 14.3279 12.722 27.2814 12.7386 18.9672 14.8945 12.0006 11.6519 13.2588 11.553 32.0508 10.2907 10.3897 9.92634 9.65437
threshold=1017.4916666666668 1010.4354166666668 0.51379069543205047 0.98211651112579579 -0.9677821976374883 1.7500000000000002 19.660416666666674 -0.97502841500522164 -0.44437817810461328 1023.9020833333335 0.65837719692149965 -0.032719082821776241 5.2500000000000009 75.520833333333357 0.81898454963288581 10.250000000000002 18.950000000000003 -0.025449943210347045 991.0562500000002 988.19375000000002 986.61875000000009 92.729166666666671 16.627083333333335 13.350000000000003 -0.95747632178960107 8.7500000000000018 22.350000000000005 -0.62052063082480968 1007.5875000000002 3.1500000000000008
decision_type=2 2 2 2 2 2 2 2 2 2 2 2 2 2 2 2 2 2 2 2 2 2 2 2 2 2 2 2 2 2
left_child=1 2 4 6 5 12 7 15 -4 10 29 14 13 -1 -12 -3 18 22 19 20 -6 -16 23 -18 25 -9 27 -24 -19 -2
right_child=9 3 8 -5 16 -7 -8 24 -10 -11 11 -13 -14 -15 21 -17 17 28 -20 -21 -22 -23 26 -25 -26 -27 -28 -29 -30 -31
leaf_value=0.015001418254916077 -0.027937598643763752 0.0029235371442304144 0.010940564516698621 -0.034978907501777859 -0.0031721649594588543 0.012903769417651166 0.015437074179424514 0.008470580772175532 -0.024550146661912766 -0.033404375079681928 0.0169349908646566 -0.032629287485185635 -0.035039680319182399 -0.031513129432563146 -0.019952947686556637 -0.036073923017391728 -0.011378136620189694 0.024276290164530274 0.016984313602658029 -0.022091405672070172 0.027706714368429676 0.0095229224363291304 -0.03593156807018285 0.022422875260189535 0.00020181975303048535 -0.035342233154424391 0.0044174633932834925 0 0 0
leaf_weight=8.60652704536915 115.17941778898239 4.3032056838274029 9.2998731434345263 10.679049670696257 11.23629775643349 20.121268466114998 31.639680162072182 12.069770634174349 17.172610983252525 91.951877295970917 14.105457812547682 9.2520421445369703 9.5715189874172193 4.9975941181182852 12.861787915229799 13.319300770759581 7.4875162094831493 28.123245716094971 392.41721984744072 7.6254688054323188 11.36218786239624 7.8804946243762961 9.1521319895982742 8.8728172183036786 237.68182919919491 12.473885178565977 6.239630162715911 4.9930821359157571 9.5750718861818296 4.9908334016799918
leaf_count=22 745 15 27 77 49 57 84 39 108 642 38 67 69 36 77 96 38 51 991 47 18 25 66 16 945 90 21 20 37 20
internal_value=-0.0004451 0.00686381 0.0120136 -0.00217543 0.013217 -0.00299728 -0.000910455 -0.0028427 -0.0117737 -0.025772 -0.0212629 -0.00578099 -0.017179 -0.00238915 0.00177962 -0.0263686 0.0146525 0.00666872 0.0160161 0.00298333 0.0124457 -0.00837149 -0.00533609 0.00661305 -0.00112952 -0.0139169 -0.0152546 -0.0243111 0.0184639 -0.0267673
internal_weight=1145.24 889.021 566.854 322.167 540.382 43.2969 311.488 279.848 26.4725 256.222 164.27 44.0998 23.1756 13.6041 34.8477 17.6225 497.085 74.4435 422.641 30.224 22.5985 20.7423 36.7452 16.3603 262.225 24.5437 20.3848 14.1452 37.6983 120.17
internal_count=4633 3019 1673 1346 1538 184 1269 1185 135 1614 972 207 127 58 140 111 1354 249 1105 114 67 102 161 54 1074 129 107 86 88 765
is_linear=0
shrinkage=0.02


Tree=6
num_leaves=31
num_cat=0
split_feature=7 7 9 10 3 2 1 1 7 11 11 9 5 5 6 5 7 1 1 1 11 9 2 8 5 11 5 7 7 9
split_gain=511.363 99.8994 39.4794 30.729 27.2512 24.7215 23.44 20.2064 18.3788 32.8894 14.8204 14.8187 14.3605 14.2789 19.4145 12.1146 11.9544 11.5584 13.437 35.049 16.6596 16.9377 13.7634 13.696 12.7105 19.2793 16.8893 11.3115 20.2503 15.0946
threshold=1017.4916666666668 1010.4354166666668 0.51379069543205047 -0.9677821976374883 19.660416666666674 1.7500000000000002 -0.97502841500522164 -0.44437817810461328 1023.9020833333335 738.50000000000011 6901.5000000000009 -0.79313188351759734 7.5500000000000007 5.2500000000000009 75.520833333333357 10.450000000000001 984.50625000000002 0.95493138204271821 -0.2925894974583354 0.15004984016008888 914.50000000000011 -0.61164211251538736 0.25000000000000006 19.285416666666674 10.750000000000002 4312.0000000000009 12.550000000000002 1015.6291666666668 1011.5458333333335 0.52497644151771627
decision_type=2 2 2 2 2 2 2 2 2 2 2 2 2 2 2 2 2 2 2 2 2 2 2 2 2 2 2 2 2 2
left_child=1 2 3 5 6 13 15 -4 9 11 17 -2 -13 14 -1 -3 -5 18 22 -20 21 -21 24 -22 25 -8 -26 28 -24 -30
right_child=8 4 7 16 -6 -7 10 -9 -10 -11 -12 12 -14 -15 -16 -17 -18 -19 19 20 23 -23 27 -25 26 -27 -28 -29 29 -31
leaf_value=0.014734181610706448 0.014691187247129003 0 0.010744743778050181 -0.0093672917594975445 0.015142161206954096 0.012660722206017681 0.00072443815703090682 -0.024116459698960209 -0.032836859629077904 -0.024771850853588916 0.018836206065320282 -0.031607833417957178 0.0063193489006399296 -0.034423125562500684 -0.030998495193116919 -0.035301618674390356 0.014758160892339486 0.0086818153471551786 -0.027868776374134336 -0.00026850079060494113 0.0073443785465169709 -0.034850347062229295 0.01554171948388725 -0.017124564334333327 0.010904837359942915 -0.035925309102156633 -0.016401817301548115 0.019732021659335974 -0.017301221450151609 0.014431671535750977
leaf_weight=8.6055181324481982 12.591507062315943 4.7196691483259228 9.2982152104377764 7.2116733342409125 31.630351468920708 20.116628080606461 9.5729112923145312 17.150003135204315 91.690099686384201 137.62530213594437 11.241865023970602 7.4521770477294904 6.3640068471431732 9.5660528391599637 4.9955708384513846 12.89224363863468 489.55871888995171 26.08214358985424 30.762754589319229 12.628511950373651 48.14623349905014 10.263292312622069 20.956365078687668 10.123266369104384 21.229676216840744 11.518699482083319 14.286116838455198 16.097224906086922 23.168645933270458 6.8000061511993399
leaf_count=22 35 18 27 36 84 57 37 108 642 861 25 54 22 69 36 93 1318 84 198 51 163 74 55 57 65 83 79 36 127 17
internal_value=-0.000439774 0.00672747 0.0117798 0.0129601 -0.00213594 -0.00295117 -0.00409709 -0.0115513 -0.0253137 -0.0208743 -0.00256524 -3.44393e-05 -0.0142155 -0.0168841 -0.0023508 -0.025881 0.0143697 -0.00359111 -0.00502328 -0.0100148 -0.00286901 -0.0170012 -0.000380048 0.00270742 -0.00764464 -0.0195585 0 0.00563084 0.000686754 -0.00954449
internal_weight=1144.35 888.622 566.502 540.054 322.12 43.2838 290.49 26.4482 255.723 164.033 272.878 26.4077 13.8162 23.1671 13.6011 17.6119 496.77 261.636 235.554 111.924 81.1613 22.8918 123.63 58.2695 56.6074 21.0916 35.5158 67.0222 50.925 29.9687
internal_count=4633 3019 1673 1538 1346 184 1262 135 1614 972 1151 111 76 127 58 111 1354 1126 1042 543 345 125 499 220 264 120 144 235 199 144
is_linear=0
shrinkage=0.02


Tree=7
num_leaves=31
num_cat=0
split_feature=7 7 9 3 1 9 1 4 5 7 7 1 9 11 1 8 8 4 3 4 6 7 5 7 5 1 7 11 2 6
split_gain=492.174 96.0373 37.9555 26.2234 22.5868 19.6211 19.5005 18.4287 27.0323 23.2021 17.8277 32.1156 22.6623 14.2877 13.8879 13.8126 17.4712 12.3391 13.4031 31.9464 15.3904 21.4501 11.7154 11.657 11.5793 18.9924 15.3958 12.056 21.3907 11.292
threshold=1017.4916666666668 1010.4354166666668 0.51379069543205047 19.660416666666674 -0.97502841500522164 -0.90965921631396396 -0.44437817810461328 18.750000000000004 13.350000000000003 1007.5875000000002 1023.9020833333335 0.65837719692149965 -0.032719082821776241 6901.5000000000009 0.81898454963288581 28.087500000000006 31.020833333333339 22.850000000000005 15.568750000000003 18.250000000000004 73.770833333333357 1012.6562500000001 10.450000000000001 1013.48125 9.0500000000000025 -0.8429103140553027 1010.9854166666668 4481.0000000000009 2.4500000000000006 92.729166666666671
decision_type=2 2 2 2 2 2 2 2 2 2 2 2 2 2 2 2 2 2 2 2 2 2 2 2 2 2 2 2 2 2
left_child=1 2 5 4 22 -1 -4 15 -9 -10 11 -2 14 17 -13 -7 -17 18 19 24 23 -22 -3 -20 26 -26 -6 -28 -29 -16
right_child=10 3 6 -5 13 7 -8 8 9 -11 -12 12 -14 -15 29 16 -18 -19 20 -21 21 -23 -24 -25 25 -27 27 28 -30 -31
leaf_value=0.018713493043957443 -0.025856342952017466 0 0.01055295914078834 0.014854483368801318 -0.024552665956281514 0.01301282251649614 -0.023696538915741774 -0.023927584740327763 0.017733644792170322 -0.014003145346956307 -0.0322948366430117 0.016814004281563422 -0.031717361027409713 0.018498483984627358 -0.019341024050118533 0.0068571708851636612 -0.032316693136108132 -0.031739845221317821 -0.0066082505017686297 -0.035578313170039268 0.011029089026205127 -0.019743554392197396 -0.034692489468082052 0.021607098291456919 0.0091186662455153174 -0.022252584840994731 0.0032189242153390731 -0.033748891558231069 0.014089612100665514 0.0092493504274305353
leaf_weight=158.42976899445057 119.73479051887989 4.7196691483259228 9.2960465699434298 31.617550179362297 9.0144859701395017 306.05678725242615 17.122825503349304 13.722161948680876 27.818109408020973 12.343354076147078 91.384229108691216 14.109752014279364 9.2035793811082822 11.236471623182295 12.827386617660524 16.206698223948482 5.1270660609006873 5.1342685967683783 6.5162986963987377 12.203181236982344 17.202606707811356 16.770338550209999 12.873963534831999 23.727591380476952 9.7127618640661222 25.496501132845879 122.05863340198994 8.7305426150560361 4.9942818433046332 7.8809543997049323
leaf_count=369 765 18 27 84 57 866 108 83 65 65 642 38 67 25 77 53 37 37 31 88 52 97 93 51 30 152 456 63 12 25
internal_value=-0.000434468 0.00659408 0.01155 -0.00209677 -0.00402137 0.0127077 -0.0113351 0.0101435 -0.000511347 0.00763338 -0.0248698 -0.0204947 -0.00543889 -0.00251716 0.00191977 0.0119238 -0.00313504 -0.00352508 -0.00280021 -0.00546234 0.00497618 -0.00400571 -0.0254172 0.0151909 -0.00318017 -0.0133096 -0.000574108 0.00111255 -0.0158873 -0.0080749
internal_weight=1143.27 888.132 566.123 322.009 290.392 539.704 26.4189 381.274 53.8836 40.1615 255.141 163.756 44.0217 272.798 34.8181 327.391 21.3338 261.561 256.427 192.21 64.2168 33.9729 17.5936 30.2439 180.007 35.2093 144.798 135.783 13.7248 20.7083
internal_count=4633 3019 1673 1346 1262 1538 135 1169 213 130 1614 972 207 1151 140 956 90 1126 1089 858 231 149 111 82 770 182 588 531 75 102
is_linear=0
shrinkage=0.02


Tree=8
num_leaves=31
num_cat=0
split_feature=7 7 9 0 10 2 3 1 1 7 1 9 5 5 1 11 7 5 3 10 11 7 1 5 5 1 9 5 10 5
split_gain=473.869 92.4006 36.4957 30.4293 29.3987 23.814 21.7329 24.6858 18.824 17.3077 30.9429 21.9342 13.6049 18.1453 13.3592 11.9203 11.5118 11.3398 11.0773 35.1271 21.8212 16.3142 14.3323 10.9878 31.147 23.755 16.1689 12.7679 20.6974 12.1425
threshold=1017.4916666666668 1010.4354166666668 0.51379069543205047 0.98211651112579579 -0.9677821976374883 1.7500000000000002 19.660416666666674 -0.97502841500522164 -0.44437817810461328 1023.9020833333335 0.65837719692149965 -0.032719082821776241 5.2500000000000009 4.5500000000000007 0.81898454963288581 6901.5000000000009 984.50625000000002 10.450000000000001 15.343750000000002 -0.56190288634169117 4352.0000000000009 1006.1625 -0.74979862697202038 8.1500000000000004 10.750000000000002 -0.27608674622158907 -0.74871468634042904 4.1500000000000012 -0.9525065255022459 11.950000000000001
decision_type=2 2 2 2 2 2 2 2 2 2 2 2 2 2 2 2 2 2 2 2 2 2 2 2 2 2 2 2 2 2
left_child=1 2 4 6 5 12 7 17 -4 10 -2 14 13 -1 -12 23 -6 -3 -18 20 -20 -22 -21 27 26 29 -25 -9 -29 -26
right_child=9 3 8 -5 16 -7 -8 15 -10 -11 11 -13 -14 -15 -16 -17 18 -19 19 22 21 -23 -24 24 25 -27 -28 28 -30 -31
leaf_value=-0.022335892062869834 -0.025401535677372206 0 0.010365094108518729 -0.033820833273822334 -0.0094312939236627265 0.012223377795498022 0.014573749528617425 -0.0052467117872900468 -0.023289600135391574 -0.031776518134344851 0.016486869445273417 -0.03124565253483454 -0.03392064361824574 0.020916921869180895 -0.0079202853460380671 0.018169590393969731 0.01568591848082013 -0.034112454200967875 -0.035295743143610045 0.022396113634686535 0.018380603837266262 -0.020169615566676825 0.0024503383090556975 -0.0035575030032131113 0.013705477892155258 -0.026002555114508778 -0.032103685692944584 -0.029307106856799353 0.010548745948686456 -0.0020382520027609906
leaf_weight=7.6309555321931857 119.46165393292904 4.7196691483259228 9.2933952212333697 10.649551957845686 7.2114831358194342 20.103818446397781 31.60148598253727 52.294515058398247 17.091355919837952 91.037094444036484 14.121642276644705 9.171092286705969 9.5556722283363325 5.9635091125965118 20.690217286348343 11.229241147637365 398.78986664116383 12.848262220621107 9.0068114101886767 40.918561369180679 9.4115534126758558 6.5220747143030158 24.208268865942955 13.87519586086273 30.931994557380676 11.065049052238463 21.878261476755142 4.5667960047721854 68.252329379320145 47.98372446000576
leaf_count=47 765 18 27 77 36 57 84 233 108 642 38 67 69 11 102 25 1027 93 65 80 20 39 87 60 87 72 150 33 212 202
internal_value=-0.000430348 0.00646283 0.0113265 -0.00206228 0.0124619 -0.00310074 -0.000838777 -0.00266184 -0.0111247 -0.0244433 -0.0201296 -0.00534173 -0.0167775 -0.00254377 0.00188529 -0.00103908 0.0138425 -0.0249718 0.0142248 0.00754428 -0.0120871 0.00175115 0.0152825 -0.00200739 -0.00618077 4.48443e-05 -0.0216958 0.00212315 0.0075506 0.00410185
internal_weight=1142.09 887.603 565.707 321.896 539.323 43.254 311.247 279.645 26.3848 254.482 163.445 43.983 23.1501 13.5945 34.8119 262.077 496.069 17.5679 488.857 90.0673 24.9404 15.9336 65.1268 250.848 125.734 89.9808 35.7535 125.114 72.8191 78.9157
internal_count=4633 3019 1673 1346 1538 184 1269 1185 135 1614 972 207 127 58 140 1074 1354 111 1318 291 124 59 167 1049 571 361 210 478 245 289
is_linear=0
shrinkage=0.02


Tree=9
num_leaves=31
num_cat=0
split_feature=7 7 9 0 10 3 1 1 7 11 9 5 11 7 5 3 3 6 3 10 11 7 1 5 5 1 9 5 10 5
split_gain=456.358 88.9347 35.0972 29.3804 28.2959 20.9269 23.7976 18.1753 16.8242 30.1019 14.0991 13.5393 11.5012 11.1033 10.9858 10.9463 18.2736 17.9161 10.6465 33.873 21.0323 15.752 13.8024 10.5701 29.9996 22.907 15.5783 12.255 20.0121 11.6823
threshold=1017.4916666666668 1010.4354166666668 0.51379069543205047 0.98211651112579579 -0.9677821976374883 19.660416666666674 -0.97502841500522164 -0.44437817810461328 1023.9020833333335 738.50000000000011 -0.79313188351759734 7.5500000000000007 6901.5000000000009 984.50625000000002 10.450000000000001 7.2562500000000005 11.027083333333335 84.770833333333357 15.343750000000002 -0.56190288634169117 4352.0000000000009 1006.1625 -0.74979862697202038 8.1500000000000004 10.750000000000002 -0.27608674622158907 -0.74871468634042904 4.1500000000000012 -0.9525065255022459 11.950000000000001
decision_type=2 2 2 2 2 2 2 2 2 2 2 2 2 2 2 2 2 2 2 2 2 2 2 2 2 2 2 2 2 2
left_child=1 2 4 5 15 6 14 -4 9 10 -2 -12 23 -6 -3 -1 -17 -18 -15 20 -20 -22 -21 27 26 29 -25 -8 -29 -26
right_child=8 3 7 -5 13 -7 12 -9 -10 -11 11 -13 -14 18 -16 16 17 -19 19 22 21 -23 -24 24 25 -27 -28 28 -30 -31
leaf_value=-0.019258583004264824 0.014511482236107674 0 0.010181034328275957 -0.033268751819370397 -0.0092662098567927783 0.014299689263791514 -0.0051438443653632013 -0.022894927555930988 -0.031280282245266688 -0.023523653444631205 -0.030681096203218034 0.006165470812238504 0.017849123487080662 0.015387584048964419 -0.033559464736237894 0.015106400159491122 -0.032946133618919883 0.011263274638597973 -0.034663711948399525 0.021992989593262534 0.018066360153887722 -0.019820809868257044 0.0024036076941513808 -0.0034909925136046901 0.013442507694740612 -0.025558158612519116 -0.031534418393591855 -0.028870242874032944 0.010342130329750895 -0.0019983471518769036
leaf_weight=11.236608132719992 12.596832081675531 4.7196691483259228 9.290289446711542 10.62656958401203 7.2109821289777747 31.582356676459312 52.293509110808372 17.055856645107269 90.651404231786728 136.73650315403938 7.4053427278995496 6.3628838062286377 11.220278322696684 398.41431173682213 12.815572708845137 19.115650251507763 7.6057912558317167 5.2655279636383057 9.0058474093675631 40.854180812835693 9.4012477695941907 6.5217121243476859 24.204824060201645 13.875802472233771 30.925981357693672 11.049831554293631 21.846109852194786 4.5583966821432105 68.243624970316887 47.983039826154709
leaf_count=65 35 18 27 77 36 84 233 108 642 861 54 22 25 1027 93 50 55 14 65 80 20 39 87 60 87 72 150 33 212 202
internal_value=-0.000427186 0.00633435 0.0111089 -0.00203018 0.0122227 -0.000827969 -0.00261767 -0.0109201 -0.0240316 -0.0197758 0 -0.0137112 -0.00102442 0.013578 -0.0245435 -0.00304683 0.00275618 -0.0146314 0.0139539 0.00739734 -0.0118792 0.00170338 0.015003 -0.00197612 -0.00607086 3.6375e-05 -0.0213053 0.00207399 0.00739349 0.00402057
internal_weight=1140.68 886.924 565.183 321.741 538.837 311.114 279.532 26.3461 253.753 163.102 26.3651 13.7682 261.997 495.613 17.5352 43.2236 31.987 12.8713 488.402 89.9878 24.9288 15.923 65.059 250.776 125.681 89.9589 35.7219 125.096 72.802 78.909
internal_count=4633 3019 1673 1346 1538 1269 1185 135 1614 972 111 76 1074 1354 111 184 119 69 1318 291 124 59 167 1049 571 361 210 478 245 289
is_linear=0
shrinkage=0.02


Tree=10
num_leaves=31
num_cat=0
split_feature=2 10 2 10 3 6 6 4 2 10 11 5 5 10 8 10 8 8 11 10 10 8 6 3 8 0 11 4 4 3
split_gain=203.936 55.1045 37.9003 28.1799 65.077 29.3621 20.6522 19.5162 21.0018 20.388 17.2848 19.1538 17.269 16.0526 15.5193 13.9971 13.8281 13.358 14.3213 17.6242 12.1544 12.2103 11.8104 27.6681 18.5956 15.9697 14.5388 14.2468 11.6759 20.3247
threshold=1.0000000180025095e-35 -0.86891961359083014 2.1500000000000008 0.24298016384076518 15.343750000000002 81.395833333333357 83.437500000000014 14.250000000000002 7.5500000000000007 -0.97956055945500498 941.50000000000011 9.2500000000000018 0.75000000000000011 -0.9825180898807756 9.0312500000000018 -0.9525065255022459 16.010416666666668 14.831250000000002 4045.0000000000005 -0.9525065255022459 -0.98537067594145711 10.368750000000002 78.229166666666671 11.881250000000003 11.631250000000001 -0.21772121422198129 2078.5000000000005 22.650000000000002 19.450000000000003 9.7895833333333346
decision_type=2 2 2 2 2 2 2 2 2 2 2 2 2 2 2 2 2 2 2 2 2 2 2 2 2 2 2 2 2 2
left_child=3 7 22 5 -5 13 -7 10 9 20 11 -2 -4 -1 -6 16 -8 -12 19 -19 21 -9 25 24 26 -3 -24 -25 29 -27
right_child=1 2 12 4 14 6 15 8 -10 -11 17 -13 -14 -15 -16 -17 -18 18 -20 -21 -22 -23 23 27 -26 28 -28 -29 -30 -31
leaf_value=-0.029387211957260063 -0.02452341844878364 0.016433772408485269 -0.010404362428491371 -0.027122164877595167 -0.018240664072571092 0.015041035579993875 -0.032044969276879665 0.0085165404307714718 0.014146289401778461 -0.029568307069004318 0.015846209102551034 0.018034536686171224 0.014541631448756967 -0.0098791396826149597 0.007120300648296469 -0.00018178586298507677 0.0072020538176871427 0.0002733736933944387 0.015973744434676182 -0.033922569026875814 0.017696669913963615 -0.024813600312483315 -0.022828765160152305 -0.019167959657117244 0.009819056000809314 -0.012301789755751288 0.0098161501445146598 0.013677627573655385 -0.014879201111295877 0.014476229468363749
leaf_weight=19.47298301756382 15.865981578826906 49.792789369821548 10.346177756786345 100.0053473263979 11.808862641453741 29.021010681986809 11.060796841979025 5.8159172236919465 8.4393068403005582 27.284670636057857 31.226842284202576 4.5643901675939551 322.21605764329433 143.03582400083542 37.797012969851494 70.041436672210693 4.1309643983840934 19.72263740003109 11.767868623137472 7.3333539813756969 6.3700084835290864 10.743791103363035 13.632334992289545 34.67158430814743 75.520385757088661 15.585508182644842 7.4682648330926886 5.0980507284402838 12.97716675698757 33.712589472532272
leaf_count=134 99 128 51 660 70 83 81 18 21 182 82 9 861 711 130 293 14 79 29 53 14 70 83 195 235 81 22 13 70 92
internal_value=8.08594e-05 0.00650473 0.00929067 -0.010886 -0.0179062 -0.00700416 0.000686295 -0.00427211 -0.0131716 -0.0181446 0.0014685 -0.014151 0.0137067 -0.0124433 0.000644278 -0.00420312 -0.0209696 0.00629973 -0.0013327 -0.00951753 -0.00346569 -0.0127199 0.00330846 -0.000581547 0.00512641 0.00809445 -0.0109007 -0.01448 0.00111429 0.00573533
internal_weight=1156.53 730.156 581.021 426.374 149.611 276.763 114.254 149.135 58.6537 50.2144 90.4811 20.4304 332.562 162.509 49.6059 85.2332 15.1918 70.0507 38.8239 27.056 22.9297 16.5597 248.459 136.391 96.621 112.068 21.1006 39.7696 62.2753 49.2981
internal_count=4663 2487 1831 2176 860 1316 471 656 305 284 351 108 912 845 200 388 95 243 161 132 102 88 919 548 340 371 105 208 243 173
is_linear=0
shrinkage=0.02


Tree=11
num_leaves=31
num_cat=0
split_feature=7 7 10 9 9 1 7 11 7 9 11 4 4 9 8 5 10 1 7 5 7 9 3 9 4 3 4 1 10 6
split_gain=398.628 77.4054 31.5082 19.6155 17.1543 24.7671 16.4612 24.2787 24.0102 21.2697 13.0154 15.7334 20.8819 13.9946 13.9777 12.9358 12.5282 15.2218 14.9598 23.2369 22.9415 18.8838 18.882 16.3897 16.251 12.9364 12.3338 20.0734 17.2303 15.9782
threshold=1017.5833333333335 1010.4354166666668 -0.9677821976374883 -0.13521120142039772 0.51379069543205047 -0.42889193791248376 1026.679166666667 802.50000000000011 1026.3833333333334 -0.7981974356084468 1198.5000000000002 11.950000000000001 19.450000000000003 0.41204441291206489 9.4354166666666686 7.5500000000000007 0.9551276437416133 0.95493138204271821 1015.2020833333335 12.15 1012.7541666666667 -0.37393222729366105 11.464583333333335 -0.93756046521711711 21.950000000000003 7.4145833333333337 16.250000000000004 -0.90146829171281539 -0.58395449179111814 77.604166666666671
decision_type=2 2 2 2 2 2 2 2 2 2 2 2 2 2 2 2 2 2 2 2 2 2 2 2 2 2 2 2 2 2
left_child=1 2 -1 16 26 -6 7 9 -9 -2 -5 -12 -13 14 -14 -11 17 18 20 25 22 24 -3 -21 -22 -20 -4 -28 29 -29
right_child=6 3 4 10 5 -7 -8 8 -10 15 11 12 13 -15 -16 -17 -18 -19 19 23 21 -23 -24 -25 -26 -27 27 28 -30 -31
leaf_value=-0.0052249320705353994 0.011866702840143186 -0.017338778648885746 0.015187286626149573 -0.027349282864090857 0.016062150997463016 -0.020324144706240579 -0.031818384594826783 -0.023450992250857335 0.016094964129101701 -0.031288023195998507 0.0072475099607536633 -0.021806524035676646 0.0067468058474644257 0.013185848044371774 -0.032138175346350002 0.0011928925264118801 0.019263083394773988 0.013957212399185126 -0.015739726046970687 0.012179042380086108 -0.030360535915294244 0.0059894850200722253 0.0077322964947155806 -0.027026277266287986 0 0.014285189407079995 0.016106793482387017 0 0.0069534761011331167 -0.034721337747715478
leaf_weight=43.442081898450851 17.273760452866554 14.672537192702292 349.1262433975935 12.306570366024969 13.29367218911648 14.545486330986021 55.811708867549896 161.13567876815796 5.4130465984344474 10.745410010218622 25.209761455655098 32.695928484201431 5.9585204571485537 16.345988616347313 6.6359425783157349 7.3216242790222159 14.537702754139898 28.687951520085335 5.2676511853933325 5.2594032287597683 28.099425047636032 10.780241400003431 49.588397324085236 11.879710868000982 10.098094567656515 54.412042737007141 65.376133725047112 14.517040431499483 57.409360647201538 7.7502503693103781
leaf_count=194 53 82 898 81 32 90 405 1030 16 79 86 197 19 46 48 29 33 79 30 14 187 38 166 78 41 153 162 57 184 56
internal_value=7.73145e-05 0.00638207 0.0108801 -0.00124853 0.0122469 -0.00264784 -0.0217911 -0.0188267 -0.0220176 -0.00332174 -0.00867172 -0.00562997 -0.0110882 0.00101081 -0.0138628 -0.0182285 0.00188742 0.000604734 -0.0014209 0.00528231 -0.00606219 -0.0162464 0.00167668 -0.014436 -0.0227697 0.0112545 0.0131098 0.00797125 0.00105504 -0.0133677
internal_weight=1155.6 897.896 565.46 332.436 522.018 27.8392 257.701 201.89 166.549 35.3408 99.1527 86.8461 61.6364 28.9405 12.5945 18.067 233.283 218.745 190.058 76.8188 113.239 48.9778 64.2609 17.1391 38.1975 59.6797 494.179 145.053 79.6767 22.2673
internal_count=4663 3051 1673 1378 1479 122 1612 1207 1046 161 477 396 310 113 67 108 901 868 789 275 514 266 248 92 228 183 1357 459 297 113
is_linear=0
shrinkage=0.02


Tree=12
num_leaves=31
num_cat=0
split_feature=7 7 10 2 7 11 7 3 3 4 1 7 4 8 8 10 8 2 11 6 6 6 1 6 6 10 10 1 1 10
split_gain=383.962 74.4706 30.3223 16.7633 16.0592 23.4219 23.2328 13.7115 15.8696 12.3574 12.5166 13.2852 18.5937 11.8976 11.5657 22.1141 27.5598 12.7592 12.5166 33.3991 14.6659 11.9533 11.2645 11.8642 10.3208 10.3113 10.2459 9.98745 9.90394 9.69884
threshold=1017.5833333333335 1010.4354166666668 -0.9677821976374883 1.0000000180025095e-35 1026.679166666667 802.50000000000011 1026.3833333333334 11.027083333333335 7.2562500000000005 5.0500000000000007 0.50494235051780223 993.20833333333337 15.65 24.108333333333338 12.704166666666667 -0.79268876030511504 14.902083333333335 3.6500000000000008 1721.5000000000002 78.479166666666671 69.020833333333357 90.562500000000014 0.81898454963288581 92.729166666666671 81.479166666666671 0.79224521787944857 -0.83025556828979852 0.96457844552971317 0.1839915361961291 -0.81369300401479816
decision_type=2 2 2 2 2 2 2 2 2 2 2 2 2 2 2 2 2 2 2 2 2 2 2 2 2 2 2 2 2 2
left_child=1 2 3 -1 5 22 29 8 -5 25 11 12 -11 -12 17 -16 24 21 -18 20 -20 -3 -2 -24 28 -4 -15 -23 -17 -7
right_child=4 14 9 7 -6 6 -8 -9 -10 10 13 -13 -14 26 15 16 18 -19 19 -21 -22 27 23 -25 -26 -27 -28 -29 -30 -31
leaf_value=-0.031549676619691151 0.0098211400474754913 0.0020593797101640323 -0.014132227718916049 -0.012670228765444286 -0.031363006946203829 -0.031448581731298504 0.015789481467586013 -0.01755935891641084 0.019063155837701282 -0.033456839735545689 0.019274554367195888 0.010787424150962512 0.015433615287978231 -0.016815608807736689 -0.015365544577458317 -0.016131525723132038 0.013300402287362758 0.016425933123091034 -0.017307764281969409 -0.027897612354365321 0.014685019134099038 -0.032718482627485147 -0.024734234035661655 0.0038192672418561626 -0.034211276446496547 0.012815247214438637 0.010591579113502111 0.0028808856199853882 0.013695687687057057 -0.01937339636630081
leaf_weight=6.9044714123010626 14.076969072222708 128.31883037090302 12.380974814295771 8.3207176625728625 55.507194176316261 45.88969486951828 5.4266262650489798 10.637825414538382 17.578490674495697 5.671962156891821 154.35164141654968 295.40724517405033 4.6870709657669067 5.2687682360410681 53.649327799677849 13.956978395581251 41.979273274540901 21.859939113259315 5.9437791407108298 12.863084271550177 28.912407651543617 6.6514290124177915 12.134608671069147 9.0858869552612287 8.7242879718542081 8.678735598921774 35.015552267432213 4.2975488156080246 5.1302014142274848 114.73451563715935
leaf_count=50 46 495 66 44 405 331 16 61 39 41 344 863 10 30 293 77 119 54 35 85 81 48 81 34 63 23 102 15 13 699
internal_value=7.34421e-05 0.00625776 0.0106726 -0.00512285 -0.0214299 -0.0185007 -0.021642 0.000312126 0.0084043 0.0120149 0.0126493 0.00998161 -0.0110441 0.0167167 -0.0012272 -0.00485446 0 0.00257039 0.00544637 -0.00138885 0.00862007 0.000222682 -0.00325865 -0.0124369 -0.0170072 -0.0024963 0.0064443 -0.0188369 -0.00733411 -0.0230583
internal_weight=1154.05 897.191 564.903 43.4415 256.855 201.348 166.051 36.537 25.8992 521.462 500.402 305.766 10.359 194.636 332.287 171.159 117.51 161.128 89.6985 47.7193 34.8562 139.268 35.2975 21.2205 27.8115 21.0597 40.2843 10.949 19.0872 160.624
internal_count=4663 3051 1673 194 1612 1207 1046 144 83 1479 1390 914 51 476 1378 766 473 612 320 201 116 558 161 115 153 89 132 63 90 1030
is_linear=0
shrinkage=0.02


Tree=13
num_leaves=31
num_cat=0
split_feature=7 7 10 0 9 9 1 7 11 7 9 11 4 4 9 8 10 5 11 4 1 9 7 4 5 10 10 4 1 10
split_gain=369.919 71.651 29.2458 27.6725 17.1643 16.3048 23.7375 15.678 22.64 22.4916 20.3503 14.5202 21.6522 18.3105 13.4431 13.4278 13.0996 20.5969 16.5879 15.9096 17.1122 14.7639 20.5606 15.2104 12.4282 12.0823 12.164 11.776 19.3909 18.9403
threshold=1017.5833333333335 1010.4354166666668 -0.9677821976374883 0.98211651112579579 -0.13521120142039772 0.51379069543205047 -0.42889193791248376 1026.679166666667 802.50000000000011 1026.3833333333334 -0.7981974356084468 1198.5000000000002 11.950000000000001 19.450000000000003 0.41204441291206489 9.4354166666666686 -0.56190288634169117 7.9500000000000011 453.50000000000006 6.2500000000000009 -0.99463397642532658 -0.19223651191951277 1011.7395833333334 19.450000000000003 7.5500000000000007 -0.99883080908650401 -0.99500481610772396 16.250000000000004 -0.90878397393106225 -0.58395449179111814
decision_type=2 2 2 2 2 2 2 2 2 2 2 2 2 2 2 2 2 2 2 2 2 2 2 2 2 2 2 2 2 2
left_child=1 2 25 4 16 27 -7 8 10 -10 -2 -6 -13 -14 15 -15 17 18 -3 -18 -21 22 23 -19 -12 -1 -27 -4 -29 -30
right_child=7 3 5 -5 11 6 -8 -9 9 -11 24 12 13 14 -16 -17 19 21 -20 20 -22 -23 -24 -25 -26 26 -28 28 29 -31
leaf_value=-0.030841010270241821 0.011642477483670467 -0.028068963382288765 0.014661950600373525 -0.032359176263551885 -0.026810689009369372 0.01558538625390532 -0.020058473409545422 -0.030926493609589673 -0.02268243135344044 0.015491933959630888 -0.030687032618399033 0.012275326671922571 -0.020654518272589899 0.0065351617915055879 0.012878419249112955 -0.031577757832963245 -0.028347845091619712 -0.017131831189363088 0.011611586197858187 -0.028804920673860344 0.010256445794866295 0.015645944448156038 -0.021294353070510946 0.020935909214685623 0.0011680646874006487 0.013079092734186016 -0.0095013671155897393 0.015828666420515718 -0.013967849806409279 0.0071002171874213127
leaf_weight=5.2589192539453498 17.273507460951805 3.5998112559318534 348.32182759046555 10.031045034527777 12.283256217837332 13.273229897022249 14.518607303500174 55.182209342718124 160.07616722583771 5.4393126368522635 10.673145368695261 22.456940829753876 31.139459416270256 5.956352040171625 16.340795308351517 6.6232095956802368 3.7382929027080527 5.9374347329139701 41.833233848214149 3.597781389951705 114.38102062046528 6.778375416994094 38.188153058290482 9.2888178974390012 7.3201623708009711 14.511801466345785 23.630185380578041 63.314330041408539 22.81545601785183 58.699834868311882
leaf_count=38 53 26 898 73 81 32 90 405 1030 16 79 66 186 19 46 48 27 35 126 26 354 17 229 19 29 41 115 156 117 186
internal_value=6.81598e-05 0.00613439 0.0104679 -0.00120734 -0.000109237 0.011787 -0.00273778 -0.0210811 -0.0181859 -0.0212824 -0.00319153 -0.00724382 -0.00392525 -0.0102484 0.000937791 -0.0136428 0.00284072 -0.00223193 0.00771541 0.00730656 0.00874913 -0.00990691 -0.0135613 0.00533424 -0.0178218 -0.00504881 -0.000540089 0.0126297 0.00760642 0.000984437
internal_weight=1152.48 896.518 564.344 332.174 322.143 520.943 27.7918 255.965 200.782 165.515 35.2668 94.8 82.5168 60.0598 28.9204 12.5796 227.343 105.626 45.433 121.717 117.979 60.1928 53.4144 15.2263 17.9933 43.4009 38.142 493.151 144.83 81.5153
internal_count=4663 3051 1673 1378 1305 1479 122 1612 1207 1046 161 446 365 299 113 67 859 452 152 407 380 300 283 54 108 194 156 1357 459 303
is_linear=0
shrinkage=0.02


Tree=14
num_leaves=31
num_cat=0
split_feature=7 7 10 0 2 7 11 10 3 8 3 3 10 1 8 4 1 7 4 8 8 10 8 0 2 6 10 10 11 6
split_gain=356.391 69.0205 28.1856 26.7472 16.0865 15.4571 20.1778 14.7818 15.7501 16.2916 13.0833 15.3373 12.3684 12.3404 14.6726 11.6584 11.875 12.848 17.992 11.514 10.1755 21.8159 25.637 18.2259 10.9641 12.8734 9.88179 9.85606 9.74454 32.3559
threshold=1017.5833333333335 1010.4354166666668 -0.9677821976374883 0.98211651112579579 1.0000000180025095e-35 1021.0812500000002 802.50000000000011 -0.81369300401479816 14.143750000000002 9.4354166666666686 11.027083333333335 7.2562500000000005 -0.26828935690047739 0.97690230611205509 14.902083333333335 5.0500000000000007 0.50494235051780223 993.20833333333337 15.65 24.108333333333338 12.704166666666667 -0.79268876030511504 14.902083333333335 0.76665171983724034 3.6500000000000008 90.562500000000014 -0.83025556828979852 0.79224521787944857 1721.5000000000002 78.479166666666671
decision_type=2 2 2 2 2 2 2 2 2 2 2 2 2 2 2 2 2 2 2 2 2 2 2 2 2 2 2 2 2 2
left_child=1 2 4 20 -1 6 -2 -8 12 -10 11 -6 -9 -7 -15 27 17 18 -17 -18 24 -22 23 -23 25 -3 -21 -4 -24 -30
right_child=5 3 15 -5 10 13 7 8 9 -11 -12 -13 -14 14 -16 16 19 -19 -20 26 21 22 28 -25 -26 -27 -28 -29 29 -31
leaf_value=-0.030891546918937998 0.0041636039612531119 0.0031875678258678009 -0.013916133711279637 -0.031867908752999219 -0.012443067992578688 -0.027329613296103505 -0.032072179106194532 -0.0057649875709930923 -0.021559494390568919 0.008590919789044197 -0.01710333808610583 0.018754883453086575 -0.031773275626467715 -0.023035252683679307 0.0092014987420597459 -0.03311619011034591 0.018670315623864529 0.010377646528577911 0.014988275532235161 -0.016778807107545847 -0.014239524325034144 -0.026098681082867076 0.013462450573234849 0.0084622522814064086 0.016390937639331301 -0.018498742363711726 0.010139638638972423 0.012444262275887344 0.010306457692310653 -0.026730798248371698
leaf_weight=6.8829166740179053 18.174995899200439 124.41100046038628 12.359771609306337 9.9977130293846113 8.317438483238222 129.63668140769005 23.371190145611763 13.714759618043898 9.9086407274007815 19.619356572628021 10.628593459725378 17.560782134532928 19.866945415735245 12.060680851340296 8.6566598117351514 5.673342823982237 153.89834621548653 294.83677624166012 4.6763863861560822 5.2689920216798773 51.768722891807556 18.508719876408581 41.53121517598629 7.7590580880641928 21.692963480949402 10.935804441571234 34.946211069822311 8.6607238203287107 33.329974845051765 12.00947332382202
leaf_count=50 68 467 66 73 44 904 174 68 65 71 61 39 148 82 32 41 344 863 10 30 280 118 116 24 53 63 102 23 105 79
internal_value=6.27382e-05 0.00601367 0.0102699 -0.00119343 -0.00496141 -0.0207411 -0.0143644 -0.0183757 -0.0127264 -0.00157382 0.00035407 0.00826572 -0.0219145 -0.0249894 -0.00930134 0.0115663 0.0121836 0.00958296 -0.0110942 0.0161511 -0.000114177 -0.00360316 0.00125822 -0.0155873 0.00348594 0.00123918 0.00604863 -0.00252927 0.00658515 0
internal_weight=1150.66 895.655 563.71 331.945 43.3897 255.01 104.656 86.4809 63.1097 29.528 36.5068 25.8782 33.5817 150.354 20.7173 520.321 499.3 305.187 10.3497 194.114 321.947 164.907 113.138 26.2678 157.04 135.347 40.2152 21.0205 86.8707 45.3394
internal_count=4663 3051 1673 1378 194 1612 594 526 352 136 144 83 216 1018 114 1479 1390 914 51 476 1305 722 442 142 583 530 132 89 300 184
is_linear=0
shrinkage=0.02


Tree=15
num_leaves=31
num_cat=0
split_feature=7 7 10 10 9 3 1 9 3 10 7 10 7 1 3 9 5 5 7 7 9 2 7 7 4 5 0 2 5 5
split_gain=368.83 65.7435 25.1103 24.5659 33.1873 20.3763 20.459 17.7557 15.8216 15.2952 32.6348 15.7679 15.2036 19.181 12.8809 13.8211 13.1669 19.2917 12.6428 11.7442 21.5664 11.5785 11.3932 10.584 11.426 10.2485 10.1524 12.0087 14.2497 14.1536
threshold=1017.5833333333335 1008.5562500000002 -0.90274170325528347 -0.42821235157398085 -0.050157161747293393 5.6729166666666675 -0.12447465306484824 0.6574300012719011 16.627083333333335 -0.97776792564451498 1010.1729166666668 -0.98537067594145711 1026.679166666667 0.99164058729498161 2.5645833333333337 -0.032719082821776241 10.65 10.950000000000001 989.87708333333353 1020.0729166666667 -0.86873952864975046 12.65 1014.3166666666667 1003.3979166666669 13.350000000000003 4.2500000000000009 0.64534213713577271 0.95000000000000018 2.8500000000000001 4.0500000000000007
decision_type=2 2 2 2 2 2 2 2 2 2 2 2 2 2 2 2 2 2 2 2 2 2 2 2 2 2 2 2 2 2
left_child=1 3 5 4 8 -3 9 21 18 11 -11 22 13 14 15 -2 19 -18 -1 20 -16 -4 -7 24 -6 -9 -5 29 -29 -28
right_child=12 2 7 26 23 6 -8 25 -10 10 -12 -13 -14 -15 16 -17 17 -19 -20 -21 -22 -23 -24 -25 -26 -27 27 28 -30 -31
leaf_value=-0.0081681682088745652 0.0095429609025522288 0.0094751791073544676 0.0026442863699155535 0.017859647955708265 -0.013970436285557494 -0.030119849819502102 -0.033999475625821923 -0.032319410989759094 -0.015726606420035517 0.015659822865221121 -0.034170106596811183 0.018912370483129697 -0.031924195250515458 0.0045977427921565081 0.005790179956351049 -0.026611972925233169 0.014141263836281011 -0.01821192283594824 0.01165103980656311 -0.031704707984522615 -0.024971112125595295 0.022293519923295851 0.0024767406309811851 -0.027308546509768279 0.017103231316506068 -0.0040099255997234542 0.0068071048452627283 -0.016787561347519728 0.016409262629304026 -0.033827443581124238
leaf_weight=12.587254047393797 10.924665078520777 15.799450039863585 297.21473187208176 170.85721026360989 12.368351757526403 6.0401670932769802 16.313478529453278 7.3232462257146862 8.710556745529173 6.4860882461071077 16.613642111420631 11.612067684531207 52.539727315306664 11.848770081996916 11.212056413292883 5.4612761884927741 7.5005529075860968 50.15365993976593 176.29838334023952 69.860039383172989 34.167125433683395 11.727475196123121 9.382905960083006 11.70197920501232 6.205195501446723 16.857943847775459 7.5701575726270658 4.8007908314466468 40.301354721188545 4.5502721816301346
leaf_count=59 41 50 1119 390 66 44 119 53 47 15 121 28 398 47 42 41 23 307 498 514 229 21 36 77 13 74 23 27 94 33
internal_value=-0.00070347 0.00547003 -0.000264705 0.0107054 0.00594923 -0.0101133 -0.0149905 0.00215996 0.00897305 -0.00806569 -0.0196944 0.00186163 -0.0218863 -0.0190697 -0.0206202 -0.00276952 -0.0222288 -0.0136631 0.0102416 -0.0262738 -0.0171942 0.00349196 -0.0107369 -0.0131222 -0.00273479 -0.0139235 0.0153669 0.00757318 0.0123713 -0.00910135
internal_weight=1124.99 871.323 415.371 455.952 227.872 82.2478 66.4483 333.123 197.596 50.1349 23.0997 27.0351 253.668 201.128 189.279 16.3859 172.893 57.6542 188.886 115.239 45.3792 308.942 15.4231 30.2755 18.5735 24.1812 228.08 57.2226 45.1021 12.1204
internal_count=4649 3007 1680 1327 760 413 363 1267 604 244 136 108 1642 1244 1197 82 1115 330 557 785 271 1140 80 156 79 127 567 177 121 56
is_linear=0
shrinkage=0.02


Tree=16
num_leaves=31
num_cat=0
split_feature=2 9 10 9 5 0 4 8 8 0 10 8 4 11 9 10 9 2 1 9 1 6 4 5 8 11 5 4 5 5
split_gain=167.169 50.6919 46.3559 26.662 34.0525 24.5831 24.4147 20.7225 17.9513 16.8346 16.8053 19.7334 19.9385 23.7575 15.3387 15.3248 17.1214 14.5794 14.8159 23.5222 19.6443 13.2327 13.0904 24.0949 13.0806 12.7656 23.7749 23.4028 12.2616 18.1039
threshold=1.0000000180025095e-35 0.024359476133908802 -0.51098052951585438 -0.032719082821776241 14.250000000000002 0.88606241628642846 19.650000000000002 14.60416666666667 13.172916666666669 -0.99052327954040364 -0.9525065255022459 14.777083333333335 5.7500000000000009 4622.5000000000009 -0.36616286892352723 -0.48258187545285308 -0.72060148774266164 2.7500000000000004 -0.34155811708470757 0.46142529389928194 -0.05591491888587425 85.562500000000014 16.350000000000005 14.050000000000002 24.341666666666672 751.50000000000011 5.5500000000000007 11.450000000000001 3.4500000000000006 0.15000000000000005
decision_type=2 2 2 2 2 2 2 2 2 2 2 2 2 2 2 2 2 2 2 2 2 2 2 2 2 2 2 2 2 2
left_child=1 5 3 4 25 9 24 8 -5 -1 -11 12 21 15 -15 16 -14 18 -4 20 -20 -12 -13 -24 28 26 -2 -28 29 -3
right_child=2 6 17 7 -6 -7 -8 -9 -10 10 11 22 13 14 -16 -17 -18 -19 19 -21 -22 -23 23 -25 -26 -27 27 -29 -30 -31
leaf_value=0.014374392712736496 -0.02500189088182252 -0.032416547447649116 0.011859931188326634 -0.012487026113251769 -0.024132639840177723 -0.022327705800873423 -0.0038684654808747972 -0.025021950577075069 0.015192868313277106 -0.019521041060082265 -0.024285153646207598 0.011116804450518799 0.008109010731761214 -0.0075515622804013752 0.015783562963668216 -0.030831416168934644 -0.022264004267591203 0.013887125618510644 -0.0309978127838389 -0.030989998923314551 0.0063296550702853609 0.014432931483454169 -0.032362013373564397 0.012813884302519592 0.0074866772548331873 0.0064940560941243817 0.021639207917811983 -0.014255611930581795 -0.033424944138162806 -0.0084906089282184467
leaf_weight=18.334573194384575 14.812845975160597 22.03993234038353 77.737341180443764 23.336295828223228 16.662071958184242 30.526862233877182 30.250250607728958 25.967504188418388 14.130227252840994 27.165007948875427 3.0853232741355923 49.670181334018707 12.173262551426889 44.868454113602638 13.832154989242552 27.023355349898338 15.459441214799879 200.34976793825626 5.0714697837829581 7.9027579575777045 70.973365366458893 21.845858335494995 7.9460531920194652 8.7890785783529264 3.9833945930004111 216.50891301035881 15.18890203535557 11.976710751652716 51.693471893668175 33.851164758205414
leaf_count=54 92 165 229 122 105 194 142 166 39 169 23 154 41 216 37 192 98 525 37 58 238 64 58 24 13 735 30 63 386 180
internal_value=-0.000694481 -0.0106239 0.00528623 -7.48061e-06 0.00266615 -0.00561544 -0.020359 -0.0116211 -0.00166421 -0.00345575 -0.00496431 -0.00289835 -0.00721804 -0.0108075 -0.00171312 -0.0201888 -0.00871839 0.010251 0.00562613 -0.00010044 0.00334045 0.00850405 0.00592259 -0.00868762 -0.0246673 0.00451848 -0.00535215 0.00551467 -0.0260079 -0.0185052
internal_weight=1123.16 422.538 700.618 338.583 275.149 280.72 141.818 63.434 37.4665 250.193 231.858 204.693 138.288 113.357 58.7006 54.6561 27.6327 362.035 161.685 83.9476 76.0448 24.9312 66.4053 16.7351 111.568 258.487 41.9785 27.1656 107.585 55.8911
internal_count=4649 2210 2439 1352 1025 1324 886 327 161 1130 1076 907 671 584 253 331 139 1087 562 333 275 87 236 82 744 920 185 93 731 345
is_linear=0
shrinkage=0.02


Tree=17
num_leaves=31
num_cat=0
split_feature=7 7 10 10 9 3 1 9 8 3 10 7 10 8 7 1 3 9 5 5 7 7 9 2 7 8 0 2 5 5
split_gain=349.383 61.718 23.6227 22.8706 30.8125 19.4301 19.668 16.8479 16.3446 15.0505 14.7037 31.2838 15.1099 16.6832 14.6919 18.3981 12.3707 13.0643 12.5436 18.5091 12.2207 11.3705 20.5891 10.9792 10.2534 10.2217 9.75665 11.2296 13.735 13.6134
threshold=1017.5833333333335 1008.5562500000002 -0.90274170325528347 -0.42821235157398085 -0.050157161747293393 5.6729166666666675 -0.12447465306484824 0.6574300012719011 20.25416666666667 16.627083333333335 -0.97776792564451498 1010.1729166666668 -0.98537067594145711 10.481250000000001 1026.679166666667 0.99164058729498161 2.5645833333333337 -0.032719082821776241 10.65 10.950000000000001 989.87708333333353 1020.0729166666667 -0.86873952864975046 12.65 1003.3979166666669 7.4395833333333341 0.64534213713577271 0.95000000000000018 2.8500000000000001 4.0500000000000007
decision_type=2 2 2 2 2 2 2 2 2 2 2 2 2 2 2 2 2 2 2 2 2 2 2 2 2 2 2 2 2 2
left_child=1 3 5 4 9 -3 10 23 -9 20 12 -12 13 -7 15 16 17 -2 21 -20 -1 22 -18 -4 -6 -22 -5 29 -29 -28
right_child=14 2 7 26 24 6 -8 8 -10 -11 11 -13 -14 -15 -16 -17 18 -19 19 -21 25 -23 -24 -25 -26 -27 27 28 -30 -31
leaf_value=-0.0081352033764562782 0.0092658967741003906 0.0093064629285819454 0.0025794226029280764 0.017349289515552702 -0.0023764136616487093 0.0086168276892052871 -0.033275371318429128 -0.024420820496400389 0.0090272406922974301 -0.015360539018660625 0.015372455227706311 -0.033452312922920377 0.018616698449427045 -0.030275288449890466 -0.031315653996764573 0.0045524946173707351 0.0056742440568047373 -0.025978127321742837 0.013846554400737832 -0.017824205090867008 -0.025280668468524531 -0.031072629481648184 -0.024393199360777027 0.021740937628190217 -0.026555293528050052 0.011949635856412906 0.0067499470235508783 -0.016687622621223537 0.015896267169546438 -0.03306805662970224
leaf_weight=12.586334913969038 10.948596343398096 15.795101076364515 297.05850583314896 170.30965606868267 18.555475756525997 7.8924252688884753 16.228929534554482 16.553076088428501 7.5851153731346121 8.7124474048614484 6.476544186472899 16.534633502364159 11.61079797148704 7.499649852514267 51.930595532059669 11.840782850980757 11.210063636302946 5.4005233645439139 7.5106329321861258 49.951342731714249 1.9270548820495594 69.196598365902901 33.944671392440796 11.695215016603468 11.673484727740286 174.1051762253046 7.5662104785442335 4.8001784086227408 40.165104776620865 4.5616814941167831
leaf_count=59 41 50 1119 390 79 25 119 104 23 47 15 121 28 55 398 47 42 41 23 307 14 514 229 21 77 484 23 27 94 33
internal_value=-0.000686583 0.00531454 -0.000242605 0.010394 0.00580027 -0.0098096 -0.014587 0.00210746 -0.0135714 0.00871638 -0.00779343 -0.0192261 0.00193075 -0.0104139 -0.0213862 -0.0186154 -0.0201425 -0.00262602 -0.0217266 -0.0133476 0.0099564 -0.0256982 -0.0167508 0.00340537 -0.0125851 0.0113451 0.0149017 0.00725538 0.0119129 -0.0088432
internal_weight=1121.83 869.893 414.93 454.963 227.56 82.0381 66.243 332.892 24.1382 197.331 50.0141 23.0112 27.0029 15.3921 251.934 200.003 188.162 16.3491 171.813 57.462 188.619 114.351 45.1547 308.754 30.229 176.032 227.403 57.0932 44.9653 12.1279
internal_count=4649 3007 1680 1327 760 413 363 1267 127 604 244 136 108 80 1642 1244 1197 82 1115 330 557 785 271 1140 156 498 567 177 121 56
is_linear=0
shrinkage=0.02


Tree=18
num_leaves=31
num_cat=0
split_feature=7 7 10 10 9 3 11 9 3 7 1 1 11 3 9 5 5 7 7 7 9 6 8 7 4 6 5 11 5 3
split_gain=337.055 59.3295 22.7566 22.0833 29.6746 18.7559 19.257 16.2119 14.5039 14.4253 17.824 13.6368 28.0553 11.9621 12.6704 12.2295 17.8849 11.772 11.6685 11.1191 19.9367 11.04 9.92189 9.89406 10.8281 9.76758 9.56491 19.5512 16.2108 10.1952
threshold=1017.5833333333335 1008.5562500000002 -0.90274170325528347 -0.42821235157398085 -0.050157161747293393 5.6729166666666675 4453.5000000000009 0.55587249042227505 16.627083333333335 1026.679166666667 0.99164058729498161 -0.2925894974583354 3978.5000000000005 2.5645833333333337 -0.032719082821776241 10.65 10.950000000000001 989.87708333333353 1015.5583333333335 1020.0729166666667 -0.86873952864975046 74.729166666666671 7.4395833333333341 1003.3979166666669 13.350000000000003 70.270833333333357 7.3500000000000005 4352.0000000000009 8.9500000000000011 14.406250000000002
decision_type=2 2 2 2 2 2 2 2 2 2 2 2 2 2 2 2 2 2 2 2 2 2 2 2 2 2 2 2 2 2
left_child=1 3 5 4 8 -3 -7 -4 17 10 13 12 -9 14 -2 19 -17 -1 21 20 -15 -8 -19 24 -6 -13 -24 28 -28 -30
right_child=9 2 7 -5 23 6 18 11 -10 -11 -12 25 -14 15 -16 16 -18 22 -20 -21 -22 -23 26 -25 -26 -27 27 -29 29 -31
leaf_value=-0.0079828096377407357 0.0090840462319319096 0.0091316450616905145 0.0036845331630644029 0.014630335835162279 -0.013306727736485707 -0.024053314420929121 0.0089230322511838107 0.019352283244061758 -0.015080270063694556 -0.030943259431910241 0.0044665488148507831 0 -0.024650605829641809 0.0055678837241382216 -0.025671231478236144 0.013584544924582657 -0.017527191287135719 -0.024917014752247075 -0.02826937642315137 -0.030665025396764113 -0.024021216658602886 -0.02575960257085335 0.015620803939319581 -0.026104822292530021 0.016967022419692487 -0.032890055076990971 -0.027063250202142286 0.017484553268882951 0.011080463106448881 -0.012104067407178756
leaf_weight=12.589139208197592 10.964275717735292 15.794682458043097 294.80176015198231 226.97824335098267 12.356835022568708 35.945391461253166 22.185820549726493 12.555202767252924 8.7154352217912656 51.520605355501175 11.846436411142347 5.1099969148635891 9.1142598390579206 11.214773520827292 5.3680649101734152 7.5215575397014609 49.800325721502304 1.9306331574916828 4.6513815224170676 68.731994733214378 33.797879084944725 3.2960429042577735 103.87942607700825 11.654865741729735 6.1990112215280524 11.25449652969837 8.093906953930853 30.501889616250992 21.106577396392826 10.325216785073279
leaf_count=59 41 50 1079 567 66 232 73 27 47 398 47 21 58 42 41 23 307 14 34 514 229 24 254 77 13 82 51 70 58 51
internal_value=-0.000678059 0.0052106 -0.000237818 0.0101954 0.00567937 -0.00963921 -0.0143443 0.0020668 0.00854358 -0.0210648 -0.0183188 -0.00998928 0.000132402 -0.0198283 -0.0025843 -0.0213919 -0.0131104 0.0097629 -0.00204083 -0.0253276 -0.0164711 0.00325594 0.0111279 -0.0123657 -0.00233127 -0.0232038 0.0117254 0.0056676 -0.00341119 0.00301772
internal_weight=1119.81 869.04 414.709 454.331 227.353 81.8733 66.0786 332.836 197.142 250.766 199.245 38.034 21.6695 187.399 16.3323 171.067 57.3219 188.427 30.1332 113.745 45.0127 25.4819 175.838 30.2107 18.5558 16.3645 173.907 70.0276 39.5257 31.4318
internal_count=4649 3007 1680 1327 760 413 363 1267 604 1642 1244 188 85 1197 82 1115 330 557 131 785 271 97 498 156 79 103 484 230 160 109
is_linear=0
shrinkage=0.02


Tree=19
num_leaves=31
num_cat=0
split_feature=7 7 10 10 9 3 11 9 8 7 7 0 3 10 7 10 7 9 4 3 9 7 7 2 8 7 4 0 5 2
split_gain=325.19 57.1085 21.931 21.3184 28.5564 18.1104 18.5321 15.6797 15.5877 14.1744 17.503 17.2297 14.9605 14.4441 20.2183 14.7553 18.3936 17.32 25.4969 13.9783 13.0484 11.3408 11.295 10.5056 9.63218 9.56305 10.4555 9.47344 10.9119 11.3895
threshold=1017.5833333333335 1008.5562500000002 -0.90274170325528347 -0.42821235157398085 -0.050157161747293393 5.6729166666666675 4453.5000000000009 0.6574300012719011 20.25416666666667 1026.679166666667 1026.3833333333334 0.73248728852523659 2.5645833333333337 -0.76860922386122066 1021.6187500000002 -0.28436394381672442 1019.6979166666667 -0.099464473658758587 19.650000000000002 16.627083333333335 -0.032719082821776241 989.87708333333353 1015.5583333333335 12.65 7.4395833333333341 1003.3979166666669 13.350000000000003 0.64534213713577271 2.4500000000000006 0.95000000000000018
decision_type=2 2 2 2 2 2 2 2 2 2 2 2 2 2 2 2 2 2 2 2 2 2 2 2 2 2 2 2 2 2
left_child=1 3 5 4 19 -3 -7 23 -9 10 11 12 20 -14 15 16 -15 -17 -19 21 -2 -1 -8 -4 -23 26 -6 -5 -29 -30
right_child=9 2 7 27 25 6 22 8 -10 -11 -12 -13 13 14 -16 17 -18 18 -20 -21 -22 24 -24 -25 -26 -27 -28 28 29 -31
leaf_value=-0.0078335326997497484 0.012952516991550891 0.0089604637171212097 0.0024678331308076317 0.016779857753559557 -0.013064933186122688 -0.023651839024997727 0.0031712549690289431 -0.023740419751169323 0.0089286006607010721 -0.030586091072816849 0.013499330713874307 -0.031331043271019807 -0.027486679206948483 -0.011951611786323563 -0.025643148742365462 -0.030786208096289132 0.018911732102383731 -0.027804542707182359 0.017766380420580742 -0.014806711510114097 -0.024166671074319551 -0.024563852816755403 -0.027874255805859449 0.021236052729261531 0.011506328230364224 -0.025669369639722505 0.016693381970345204 -0.013789116243302868 -0.0084473107776373291 0.014991580693216747
leaf_weight=12.591490507125853 11.957523450255396 15.793611377477644 297.01235666871071 169.64391027390957 12.352365076541906 35.84243631362915 25.475294262170795 16.507017552852634 7.5780480206012717 51.095734819769859 5.7865142077207556 38.627390787005424 44.536901488900185 13.388602167367937 32.295876637101173 14.1518018245697 15.345037475228308 7.5045506507158306 10.555607244372366 8.7173799276351911 4.3021388947963706 1.9335691928863514 4.6372841149568549 11.660658270120619 173.68507984280586 11.632708907127379 6.1910853385925284 7.5501409024000159 9.0942528396844846 40.278517723083496
leaf_count=59 40 50 1119 390 66 232 97 104 23 398 19 295 322 74 229 106 40 57 29 47 33 14 34 21 484 77 13 39 42 96
internal_value=-0.000670847 0.00510727 -0.000237818 0.0100027 0.0055628 -0.00947554 -0.0141075 0.00202324 -0.0131167 -0.020753 -0.0180305 -0.0190939 -0.0157784 -0.0179131 -0.012991 -0.00581937 0.00427617 -0.0149835 -0.00111037 0.00837464 0.00172063 0.00957377 -0.00203054 0.00327541 0.0109157 -0.0121464 -0.00227208 0.0143652 0.00683084 0.0103937
internal_weight=1117.72 868.177 414.507 453.671 227.104 81.7486 65.955 332.758 24.0851 249.548 198.452 192.665 154.038 137.778 93.2415 60.9456 28.7336 32.212 18.0602 196.928 16.2597 188.21 30.1126 308.673 175.619 30.1762 18.5435 226.567 56.9229 49.3728
internal_count=4649 3007 1680 1327 760 413 363 1267 127 1642 1244 1225 930 857 535 306 114 192 86 604 73 557 131 1140 498 156 79 567 177 138
is_linear=0
shrinkage=0.02


Tree=20
num_leaves=31
num_cat=0
split_feature=7 10 5 7 10 10 7 8 7 9 8 9 11 10 4 2 3 11 3 9 2 11 5 11 4 4 10 9 4 5
split_gain=264.242 39.7754 35.2859 24.9078 23.7803 30.2764 19.452 26.6631 17.6841 22.3386 17.5697 32.9346 17.9698 21.9111 16.4708 16.2568 15.649 13.0534 11.2961 11.4488 20.9842 11.5188 11.121 11.5798 12.5996 20.8504 14.4379 12.0784 10.9252 23.1338
threshold=1017.5833333333335 -0.53975051522803597 7.8500000000000005 1021.6187500000002 -0.81369300401479816 -0.28436394381672442 1011.0812500000002 13.335416666666669 1010.6937500000001 -0.078821574694374882 18.368750000000006 -0.53022755313356085 4382.5000000000009 -0.99783501006248188 19.950000000000003 3.1500000000000008 15.514583333333334 325.50000000000006 18.183333333333337 -0.32316047932025677 4.8500000000000014 3978.5000000000005 4.7500000000000009 994.50000000000011 10.15 12.450000000000001 -0.7639367769784724 -0.25671110758093213 12.65 3.0500000000000003
decision_type=2 2 2 2 2 2 2 2 2 2 2 2 2 2 2 2 2 2 2 2 2 2 2 2 2 2 2 2 2 2
left_child=1 2 10 4 -2 -6 18 -8 -3 -10 22 17 13 -13 28 16 -7 -12 19 21 -21 -4 23 27 26 -26 -25 -1 29 -11
right_child=3 8 6 -5 5 15 7 -9 9 14 11 12 -14 -15 -16 -17 -18 -19 -20 20 -22 -23 -24 24 25 -27 -28 -29 -30 -31
leaf_value=0.002369176372796951 -0.02538803758848061 0.012115450042966261 -0.002337159007346842 -0.023630398684542683 0.0071186325903731876 -0.028051078729967531 -0.0028425893031028011 -0.026063360313274459 0.008041902570419807 -0.030865842566257608 -0.027754386707318255 0.0098374494494850584 0.015714685560003768 -0.03193255004988136 0.0081212370050445671 0.013948322298551594 -0.002569811224470744 0.012083604777057699 -0.028983082536807113 -0.023508972624476529 0.013347250754809629 0.012485918928445749 0.01696997217928552 0.018974491214706415 -0.031711574109761435 0.013000097270368081 -0.0070316715722670252 -0.030155783856906815 -0.032494732079871004 0.014528882240848489
leaf_weight=12.777658835053446 32.668877214193344 300.01137587428093 39.774550601840019 136.59472981095314 40.943074777722359 29.634663388133049 47.94669945538044 34.427947044372559 126.92436252534389 7.1200360804796246 2.4783463329076758 5.5042427033186021 4.6807042956352225 21.813182562589645 13.83963657915592 5.4847080558538428 15.716116413474081 43.722495526075363 4.1413253396749488 15.91917395591736 8.5529428869485837 40.726060599088669 58.570671901106834 42.015094682574272 6.3026323169469824 8.4990521818399412 9.4600690454244596 5.6293058544397345 10.945308893918989 8.8470594286918622
leaf_count=45 233 810 161 967 156 218 212 229 414 52 18 16 10 151 44 16 76 119 30 100 22 112 146 97 46 22 45 41 80 24
internal_value=-2.47445e-05 0.00520762 0.0006541 -0.0176669 -0.0109054 -0.00542436 -0.00559032 -0.0128637 0.00919682 0.00387456 0.0060994 -0.00140605 -0.016826 -0.0231129 -0.00874708 -0.0156619 -0.0196824 0.00919199 0 0.00137247 -0.0102169 0.00510047 0.0102471 0.00533681 0.00928326 -0.00620753 0.0139616 -0.0081038 -0.01776 -0.00575025
internal_weight=1141.67 880.63 412.942 261.042 124.447 91.7786 191.489 82.3746 467.688 167.676 221.453 78.199 31.9981 27.3174 40.752 50.8355 45.3508 46.2008 109.114 104.973 24.4721 80.5006 143.254 84.6838 66.2768 14.8017 51.4752 18.407 26.9124 15.9671
internal_count=4712 3046 1622 1666 699 466 866 441 1424 614 756 314 177 167 200 310 294 137 425 395 122 273 442 296 210 68 142 86 156 76
is_linear=0
shrinkage=0.02


Tree=21
num_leaves=31
num_cat=0
split_feature=2 10 9 4 5 11 4 10 5 5 8 6 10 9 10 10 11 6 3 6 1 2 3 5 8 5 6 11 2 10
split_gain=113.018 51.0335 45.229 22.0456 20.5408 29.0312 19.7795 18.1539 18.0346 25.2205 16.7065 16.6808 16.1873 25.4844 14.6912 24.8033 36.8724 20.5 19.552 19.4546 17.8611 13.7351 13.0477 12.7837 16.3906 15.8883 12.4078 12.1172 10.7597 10.2159
threshold=1.0000000180025095e-35 -0.86891961359083014 -0.087880172865686793 20.950000000000003 7.2500000000000009 941.50000000000011 4.4500000000000011 -0.49179048942700371 11.750000000000002 13.550000000000002 14.831250000000002 86.520833333333357 -0.82143957265698353 -0.60674011927317395 0.97897129681889483 0.089328798809355667 6385.0000000000009 80.395833333333357 19.214583333333334 89.312500000000014 -0.45973273945210419 7.5500000000000007 19.660416666666674 3.5500000000000003 24.341666666666672 2.9500000000000006 79.854166666666671 4899.5000000000009 15.450000000000001 -0.050520307682097393
decision_type=2 2 2 2 2 2 2 2 2 2 2 2 2 2 2 2 2 2 2 2 2 2 2 2 2 2 2 2 2 2
left_child=2 4 14 23 5 -2 -3 8 12 -10 -7 21 -8 -14 15 17 18 20 -17 -19 -1 22 -6 25 -25 -4 -12 -15 -9 -22
right_child=1 6 3 -5 11 10 7 28 9 -11 26 -13 13 27 -16 16 -18 19 -20 -21 29 -23 -24 24 -26 -27 -28 -29 -30 -31
leaf_value=-0.00033530919117472422 -0.022976090054029528 -0.015216503696149814 -0.016907845625157531 0 -0.026066986598612993 0.016370649300148473 0.018550628870462257 0.0099113913269663744 -0.026463745192356027 0.0031708890707554671 0.0019829893107939293 0.0078006326574689066 0.0071492569308571419 -0.027485915145852011 0.019535850266332717 -0.029115457873715039 0.0089830713782727764 0.011348009281931594 0.0084866926197797975 -0.0096108443949635951 -0.022354824945903202 0.0082065229220687225 0.0087580882264257694 -0.027977936518226248 0.011633910703260506 0.0083942290411328346 -0.02987052324236833 0.0037863167690613954 0.023777542132768115 0.008845896526193657
leaf_weight=65.140415132045746 15.317601114511488 13.651597768068312 58.033998891711235 28.599630802869797 41.487481012940407 33.78936405479908 35.116892442107201 318.5235098451376 16.470166191458702 31.66702464222908 25.751096069812778 10.024543359875677 105.55935195088387 13.22728091478348 10.093010559678076 39.523639261722565 17.718619853258133 72.545019209384918 5.4986953586339942 21.995551228523254 29.505267590284348 5.5085417479276648 3.8492889851331702 66.296775206923485 3.5583565533161154 10.725774526596068 4.897777095437049 6.479239970445632 25.13139434158802 3.8225342333316794
leaf_count=279 97 77 361 123 274 87 80 953 104 118 100 33 340 89 27 282 58 238 16 116 188 16 12 482 10 40 36 23 41 12
internal_value=-2.76479e-05 0.00489291 -0.00807044 -0.0162014 -0.00581923 0.000761397 0.00757843 0.00818656 0.00343804 -0.00709732 0.00682173 -0.0144762 0.00668646 0.0031607 -0.00287707 -0.00387317 -0.0146932 -0.000246767 -0.0242211 0.00631756 -0.00664994 -0.0191269 -0.0227692 -0.0194786 -0.0256833 -0.0127539 -0.0035743 -0.0170348 0.0110205 -0.0183315
internal_weight=1139.51 706.452 433.057 167.215 140.626 79.7558 565.826 552.175 208.52 48.1372 64.4382 60.8699 160.383 125.266 265.843 255.75 62.741 193.009 45.0223 94.5406 98.4682 50.8453 45.3368 138.615 69.8551 68.7598 30.6489 19.7065 343.655 33.3278
internal_count=4712 2480 2232 1016 655 320 1825 1748 754 222 223 335 532 452 1216 1189 356 833 298 354 479 302 286 893 492 401 136 112 994 200
is_linear=0
shrinkage=0.02


Tree=22
num_leaves=31
num_cat=0
split_feature=2 10 9 0 4 5 11 0 4 10 5 5 8 6 10 9 8 2 5 5 8 5 10 6 11 5 3 2 0 9
split_gain=108.731 49.0763 43.7009 23.7179 21.3334 19.7278 27.9649 19.6141 19.0567 17.4752 17.3521 24.2804 16.0965 16.0929 15.5947 24.5335 13.653 13.2765 12.6563 12.458 15.9428 15.351 12.223 12.0214 11.721 11.4389 12.1728 10.4277 9.98803 9.93543
threshold=1.0000000180025095e-35 -0.86891961359083014 -0.087880172865686793 -0.99052327954040364 20.950000000000003 7.2500000000000009 941.50000000000011 0.91927745688801421 4.4500000000000011 -0.49179048942700371 11.750000000000002 13.550000000000002 14.831250000000002 86.520833333333357 -0.82143957265698353 -0.60674011927317395 6.6812500000000012 7.5500000000000007 15.050000000000002 3.5500000000000003 24.341666666666672 2.9500000000000006 0.97897129681889483 79.854166666666671 4899.5000000000009 -0.54999999999999993 19.404166666666672 15.450000000000001 -0.98521098335796131 -0.44131006170300124
decision_type=2 2 2 2 2 2 2 2 2 2 2 2 2 2 2 2 2 2 2 2 2 2 2 2 2 2 2 2 2 2
left_child=2 5 3 -1 19 6 -2 16 29 10 14 -12 -8 17 -10 -16 25 18 -7 21 -21 -4 -18 -14 -17 -5 -27 28 -11 -3
right_child=1 8 4 7 -6 13 12 -9 9 27 11 -13 23 -15 15 24 22 -19 -20 20 -22 -23 -24 -25 -26 26 -28 -29 -30 -31
leaf_value=0.01825004854569183 -0.022579533368826891 0.0011862147200436795 -0.016625396870678103 0.0053391931343752313 0 -0.027135752890231585 0.016063061762272523 -0.021352421047333141 0.018214207329222045 -0.0072485369909545787 -0.025963137130432586 0.0031094846273211929 0.0019447920958800457 0.0076587331954427931 0.0070116543164100743 -0.027027202750319265 -0.0018057961871903239 0.0080713701201066985 0 -0.027597841422447315 0.011447368753400928 0.0082334537374686972 0.022025198851100446 -0.029428287995590673 0.0037207559142302432 -0.030975016968851334 0.0049757402832057984 0.023397008931091961 0.010440084091049174 -0.030383202557703638
leaf_weight=18.64741288125515 15.292696066200731 6.805989608168602 57.858303427696228 6.4770360887050655 28.599630802869797 37.298164248466492 33.767028301954269 24.075661733746529 35.069148004055023 11.975220471620558 16.471241801977158 31.666272759437561 25.751363649964336 10.024597153067587 105.49856020510197 13.199983820319177 188.82634358853102 5.505539968609809 7.9203172326087943 65.883584886789322 3.5602910071611396 10.735936284065245 7.9917031973600379 4.8870838135480872 6.4791594743728629 15.630650356411936 3.9609990566968909 25.046449348330498 306.26396499574184 6.8350085914134961
leaf_count=49 97 26 361 24 123 252 87 158 80 56 104 118 100 33 340 89 834 16 34 482 10 40 19 36 23 119 13 41 897 51
internal_value=-2.7373e-05 0.00479983 -0.00792502 -0.0028211 -0.0159353 -0.00571113 0.000735611 -0.00451963 0.00743432 0.00803179 0.00337041 -0.00696073 0.00668513 -0.0142057 0.00655978 0.00309701 -0.00256948 -0.0187846 -0.0223747 -0.0191714 -0.02532 -0.0125286 -0.000681149 -0.00351537 -0.0167298 -0.015905 -0.0233323 0.0108143 0.00972252 -0.0149439
internal_weight=1138.01 705.758 432.248 265.61 166.638 140.447 79.6982 246.962 565.311 551.67 208.384 48.1375 64.4055 60.7486 160.247 125.178 222.887 50.724 45.2185 138.038 69.4439 68.5942 196.818 30.6384 19.6791 26.0687 19.5916 343.286 318.239 13.641
internal_count=4712 2480 2232 1216 1016 655 320 1167 1825 1748 754 222 223 335 532 452 1009 302 286 893 492 401 853 136 112 156 132 994 953 77
is_linear=0
shrinkage=0.02


Tree=23
num_leaves=31
num_cat=0
split_feature=7 10 5 7 0 2 7 8 0 8 9 11 10 7 9 5 10 10 7 11 1 4 10 7 9 4 5 1 11 10
split_gain=246.492 35.4788 32.5163 24.3509 19.5497 18.6766 18.4204 25.6695 18.2184 16.7991 30.4296 17.0352 22.5426 15.6353 19.2671 15.4538 18.4516 14.4894 13.3705 12.5964 12.2632 11.2592 16.0025 12.303 10.7526 10.6346 10.4081 11.1385 15.5952 12.9498
threshold=1017.5833333333335 -0.53975051522803597 7.8500000000000005 1026.679166666667 0.80900950266415306 0.15000000000000005 1011.0812500000002 13.335416666666669 0.6583954877256819 18.368750000000006 -0.53022755313356085 4382.5000000000009 -0.99845232474855583 1012.7541666666667 -0.078821574694374882 2.4500000000000006 0.9551276437416133 -0.7535155348200937 1021.6187500000002 325.50000000000006 -0.99049576193482813 15.450000000000001 -0.36209852828245065 1024.8520833333334 -0.97837375053000086 1.4500000000000002 4.7500000000000009 0.047319635496388707 994.50000000000011 -0.75993327167765867
decision_type=2 2 2 2 2 2 2 2 2 2 2 2 2 2 2 2 2 2 2 2 2 2 2 2 2 2 2 2 2 2
left_child=1 2 9 4 5 21 -4 -8 13 26 19 12 -12 25 20 16 24 -7 -19 -11 -15 22 -2 -24 -10 -3 27 -1 -29 -30
right_child=3 8 6 -5 -6 17 7 -9 15 10 11 -13 -14 14 -16 -17 -18 18 -20 -21 -22 -23 23 -25 -26 -27 -28 28 29 -31
leaf_value=-0.014693734344530092 -0.00033389235298996031 -0.024024015152978886 2.905581607800047e-05 -0.029714635789013177 -0.027648269433867063 -0.016853056266905427 -0.0025579787916039189 -0.025389837714594781 0 -0.027461343845770387 0.011895180030288267 0.015408056542340351 -0.0311336594665532 -0.026419122333419375 -0.014394969451571368 0.0054625039069372897 0.012809570303805393 0.013041087342762504 -0.01575437188103845 0.011648892405069054 0.010259719352799066 -0.021054778513002251 -0.029572894234706621 0.0031453440822630735 -0.034422395980157561 0.013972769378285623 0.016526619942644941 -0.0075663459019238433 0.017208940219526882 -0.0071046438389559263
leaf_weight=8.7206515818834287 38.969222292304039 1.9183305501937855 108.93369461596012 50.874791972339153 34.824459910392761 14.058874063193796 47.848101317882538 34.190426826477051 4.6864932179450998 2.4816465079784384 5.2208627164363923 4.6744899451732627 21.996276795864105 2.7674384862184516 17.576550379395485 94.465409591794014 6.7440779060125342 27.480068877339363 7.1612722724676123 43.60530386865139 68.526896089315414 63.007649533450603 16.916982397437099 5.2332564964890471 10.934195414185524 258.49753905832767 58.402386501431465 18.379758477210999 47.923852533102036 9.4459812641143781
leaf_count=48 190 14 425 406 263 91 212 229 18 18 14 10 153 20 96 316 17 89 46 119 208 426 131 24 80 655 146 86 117 45
internal_value=-2.76938e-05 0.00502041 0.000712639 -0.0171626 -0.0139117 -0.0109431 -0.00528846 -0.012385 0.00879533 0.00594737 -0.00139956 -0.0162512 -0.0223963 0.0110828 0.00363171 0.00183546 -0.0126348 -0.000220375 0.00653273 0.00879207 0.00835189 -0.0150348 -0.00842887 -0.0216089 -0.0243315 0.0135638 0.0100086 0.00524447 0.00783169 0.0129812
internal_weight=1136.47 877.94 411.823 258.527 207.652 172.827 190.972 82.0385 466.117 220.851 77.9786 31.8916 27.2171 349.287 88.8709 116.83 22.3648 48.7002 34.6413 46.087 71.2943 124.127 61.1195 22.1502 15.6207 260.416 142.873 84.4702 75.7496 57.3698
internal_count=4712 3046 1622 1666 1260 997 866 441 1424 756 314 177 167 993 324 431 115 226 135 137 228 771 345 155 98 669 442 296 248 162
is_linear=0
shrinkage=0.02


Tree=24
num_leaves=31
num_cat=0
split_feature=7 10 7 3 0 11 2 0 6 10 6 7 7 10 8 7 10 3 8 10 2 11 3 11 7 10 11 1 6 10
split_gain=237.913 34.129 23.8746 21.3215 19.0542 18.7732 18.0298 17.5274 15.1592 23.4325 18.8621 15.0971 15.8226 14.9851 14.7732 14.1691 13.9706 13.9208 21.2085 27.4685 14.0095 14.7685 13.652 13.0469 12.8929 12.5643 12.2907 11.9409 11.305 11.2827
threshold=1017.5833333333335 -0.53975051522803597 1026.679166666667 13.247916666666667 0.80900950266415306 3292.5000000000005 0.15000000000000005 0.6583954877256819 81.395833333333357 -0.36209852828245065 85.687500000000014 1012.7541666666667 1013.6479166666667 -0.9525065255022459 14.956250000000002 1005.5395833333333 -0.7535155348200937 7.7229166666666673 11.956250000000002 0.95994797876360616 0.95000000000000018 1607.0000000000002 4.9875000000000007 751.50000000000011 1021.6187500000002 0.76977084132478868 325.50000000000006 -0.99049576193482813 86.520833333333357 -0.88868393112946931
decision_type=2 2 2 2 2 2 2 2 2 2 2 2 2 2 2 2 2 2 2 2 2 2 2 2 2 2 2 2 2 2
left_child=1 3 4 13 6 28 8 11 -2 10 -10 -3 -13 14 -1 -16 -8 18 -9 -20 25 -22 -14 -12 -18 -19 -15 -24 -5 -7
right_child=2 7 -4 5 -6 29 16 17 9 -11 23 12 22 26 15 -17 24 20 19 -21 21 -23 27 -25 -26 -27 -28 -29 -30 -31
leaf_value=0.0044943654840131795 -0.020718265622349127 0.013315875266276896 -0.029406288871662717 -0.024485286594132433 -0.027313265117814973 -0.0091741746771371018 -0.016596693783142637 0.011871400935817678 0.018562603029066732 -0.024284455797725285 0.0048408821483889924 -0.02185548854268891 -0.027006967620905792 -0.01556893150237843 -0.0016570947627119639 -0.030946813131270519 0.012775816149617676 0.0038620694527746781 -0.031856164095147618 0.013320882476957115 -0.017512558090493999 0.016997285437676736 -0.026090469844279787 -0.027527914497475017 -0.015522733074612129 -0.023082930195468539 0.0076431259774613711 0.010042449731493331 0 0.0038258947105018304
leaf_weight=30.586448803544044 72.245799861848354 259.93215197324753 50.395390704274178 25.971271276473999 34.561469465494156 42.576691195368767 14.00649072229862 12.49585001170635 16.368649914860725 17.446002021431923 9.4561018273234385 7.7319480627775183 3.5581363886594763 8.3785991966724378 15.553721085190775 11.770985051989554 27.510093405842781 23.680487185716629 17.45922459661961 6.5791787207126609 4.4862914234399787 43.589404240250587 2.7618939727544776 8.17051864415407 7.1379321366548529 8.4670070260763151 199.93517890572548 74.772301241755486 9.6066252440214139 67.081095352768898
leaf_count=111 493 669 406 167 263 216 91 35 50 127 38 48 26 45 65 88 89 84 120 16 25 97 20 63 46 54 645 230 38 247
internal_value=-3.2176e-05 0.00492287 -0.0169133 0.000695882 -0.0136955 -0.00541621 -0.0107651 0.00862811 -0.0147962 -0.00605196 0.00344558 0.0108744 0.00354968 0.00407547 -0.00476465 -0.0152747 -0.000224378 0.00179816 -0.00817557 -0.0190539 0.00650813 0.0132819 0.00633054 -0.0102986 0.00639353 -0.0034153 0.00659182 0.00831217 -0.017845 -0.00116855
internal_weight=1134.27 876.974 257.298 411.461 206.903 145.236 172.342 465.514 123.687 51.4413 33.9953 348.756 88.8243 266.225 57.9112 27.3247 48.6545 116.757 36.5343 24.0384 80.2232 48.0757 81.0923 17.6266 34.648 32.1475 208.314 77.5342 35.5779 109.658
internal_count=4712 3046 1666 1622 1260 668 997 1424 771 278 151 993 324 954 264 153 226 431 171 136 260 122 276 101 135 138 690 250 205 463
is_linear=0
shrinkage=0.02


Tree=25
num_leaves=31
num_cat=0
split_feature=7 7 9 10 7 2 10 3 10 7 10 10 3 8 9 5 4 10 7 5 10 7 7 4 4 7 11 3 4 4
split_gain=220.633 41.3008 30.5082 23.0053 22.419 19.1937 26.1861 21.6168 18.2636 16.1327 17.869 25.7659 15.5805 27.6735 14.6017 13.3372 12.8546 13.7022 13.9522 12.258 12.0757 13.3917 20.9434 12.0152 11.8294 11.6063 19.4438 14.0225 22.0987 17.161
threshold=1017.5833333333335 1007.5875000000002 0.50031482958899409 -0.91280441984822247 1026.679166666667 1.0000000180025095e-35 0.089328798809355667 15.343750000000002 -0.95491199264177207 1026.3833333333334 -0.81369300401479816 -0.21821419706401263 15.514583333333334 10.685416666666667 -0.18616678233405623 12.950000000000001 4.7500000000000009 0.71883425027165215 1007.98125 3.1500000000000008 -0.37460649436062637 1018.5916666666667 1021.6187500000002 13.550000000000002 4.8500000000000005 1010.5458333333335 2700.5000000000005 7.4145833333333337 11.950000000000001 20.250000000000004
decision_type=2 2 2 2 2 2 2 2 2 2 2 2 2 2 2 2 2 2 2 2 2 2 2 2 2 2 2 2 2 2
left_child=1 2 8 14 9 6 -5 -8 19 10 -2 20 24 -14 15 -3 -7 18 -18 -1 21 -12 -23 -4 -13 -20 27 -27 -29 -30
right_child=4 3 23 5 -6 16 7 -9 -10 -11 11 12 13 -15 -16 -17 17 -19 25 -21 -22 22 -24 -25 -26 26 -28 28 29 -31
leaf_value=-0.022702422471203958 -0.023932221165865117 0.0043753648869158026 -0.030439707775474178 0.0029532248665587717 -0.029054584933987417 -0.027066964091034353 -0.027196032262615105 9.4187581373700346e-05 0.01174771154286648 0.018093164215234932 -0.029086098755180215 -0.0029419121528128896 -0.02842192447689193 0.013920481518764738 -0.017515459236368019 -0.027354981023023008 -0.030827322324530303 0.015870669609337636 0.011042510093039644 0.0033752594885651283 0.015641058128814871 0.009586763241536192 -0.01830186676664123 0.0030439286791317426 -0.028187090047616076 -0.033390804503139734 0.00761274172842232 0.012522006412960869 -0.025883203249109497 0.011994124095396849
leaf_weight=8.3964173346757871 56.984133750200272 34.057269871234894 9.4056977629661542 84.526230469346046 47.303564675152302 3.5603904426097861 26.043398708105087 19.064470767974854 363.52633072435856 5.2257091253995887 7.0152345001697531 10.265881992876528 9.556765943765642 13.679580286145208 39.920277327299118 5.2341965585947028 3.4302815198898307 49.830919340252876 73.535439550876617 28.721740290522575 12.966548033058642 27.630067467689514 16.217087991535664 6.1590767055749884 44.357086874544621 6.9153173863887778 69.277949199080467 17.482613429427147 17.596697509288791 5.3668349683284751
leaf_count=53 413 129 70 317 385 26 175 74 972 15 52 54 73 45 240 39 25 123 209 105 40 99 109 21 341 50 231 47 112 15
internal_value=-1.30608e-05 0.00473791 0.00928645 0.000551722 -0.0164992 0.00263733 -0.00352898 -0.0156933 0.0103807 -0.01341 -0.0143752 -0.0103207 -0.0179728 -0.00353588 -0.00914935 -0.000177407 0.00591517 0.00654722 0.0040269 -0.0027022 -0.000699001 -0.00527872 -0.000683102 -0.0172024 -0.0237605 0.00486586 0.000826007 -0.00884665 -0.00370452 -0.0164824
internal_weight=1123.25 872.052 416.209 455.842 251.202 376.631 129.634 45.1079 400.644 203.898 198.672 141.688 77.8593 23.2363 79.2117 39.2915 246.996 243.436 193.605 37.1182 63.8289 50.8624 43.8472 15.5648 54.623 190.175 116.639 47.3615 40.4461 22.9635
internal_count=4659 3033 1221 1812 1626 1404 566 249 1130 1241 1226 813 513 118 408 168 838 812 689 158 300 260 208 91 395 664 455 224 174 127
is_linear=0
shrinkage=0.02


Tree=26
num_leaves=31
num_cat=0
split_feature=7 7 9 10 7 2 10 3 10 7 10 10 3 8 9 5 4 10 7 5 4 10 7 7 4 8 7 11 10 8
split_gain=212.968 39.7834 29.4141 22.1469 22.0029 18.4354 25.2216 20.9043 17.6082 15.6229 17.3608 24.9664 15.1473 26.7916 14.064 12.9293 12.455 13.206 13.4993 11.8339 11.6743 11.6328 12.9888 20.2102 11.5381 11.4741 11.1782 20.1849 14.0013 12.4233
threshold=1017.5833333333335 1007.5875000000002 0.50031482958899409 -0.91280441984822247 1026.679166666667 1.0000000180025095e-35 0.089328798809355667 15.343750000000002 -0.95491199264177207 1026.3833333333334 -0.81369300401479816 -0.21821419706401263 15.514583333333334 10.685416666666667 -0.18616678233405623 12.950000000000001 4.7500000000000009 0.71883425027165215 1007.98125 3.1500000000000008 13.550000000000002 -0.37460649436062637 1018.5916666666667 1021.6187500000002 4.8500000000000005 18.452083333333338 1010.4354166666668 2700.5000000000005 -0.66615285205584152 20.127083333333335
decision_type=2 2 2 2 2 2 2 2 2 2 2 2 2 2 2 2 2 2 2 2 2 2 2 2 2 2 2 2 2 2
left_child=1 2 8 14 9 6 -5 -8 19 10 -2 21 24 -14 15 -3 -7 18 -18 -1 -4 22 -12 -24 -13 -25 -20 28 -28 -30
right_child=4 3 20 5 -6 16 7 -9 -10 -11 11 12 13 -15 -16 -17 17 -19 26 -21 -22 -23 23 25 -26 -27 27 -29 29 -31
leaf_value=-0.02231994388134818 -0.023616505580744091 0.0042897782228995852 -0.030027463013681067 0.0028949398258667648 -0.028769622771481734 -0.026690681924474307 -0.026752871055847061 9.2397992187557133e-05 0.01153377484617768 0.017741339030112574 -0.028698056468289546 -0.0028899010724752596 -0.028082798306240352 0.013637923101107188 -0.0172134053282407 -0.027002724761247498 -0.030315113916681496 0.015580512933226586 0.010978828032678292 0.0033103034659096643 0.0029921342112746918 0.015326004474298697 0.0093933028367192643 -0.028069704193470876 -0.027858383192969082 0.0063435937871651159 -0.026627308439822084 0.0076946839276108596 -0.011704269514060839 0.011650452431669159
leaf_weight=8.3867250233888608 56.608161136507988 34.061924517154694 9.3583338707685453 84.523627907037735 46.8313153013587 3.5525480210781089 25.962681636214256 19.064420565962791 362.88889688253403 5.242411643266677 6.9817459583282462 10.259688287973402 9.4914610162377375 13.704207092523573 39.82685536891222 5.2097184956073752 3.4353175163269034 49.763049021363258 71.3848797082901 28.719272136688232 6.1577015221118918 12.988765135407446 27.655475899577141 11.619617380201818 43.998264163732529 4.5247692465782157 12.196746364235876 70.92131507396698 21.377297952771187 14.16679699718952
leaf_count=53 413 129 70 317 385 26 175 74 972 15 52 54 73 45 240 39 25 123 202 105 21 40 99 91 341 18 81 235 107 39
internal_value=-1.77816e-05 0.00464562 0.00911444 0.000535715 -0.016264 0.00258267 -0.00346141 -0.0154143 0.0101894 -0.0132042 -0.0141597 -0.0101593 -0.0177202 -0.00347561 -0.00898944 -0.00018056 0.00579688 0.00641964 0.00394407 -0.00265395 -0.0169301 -0.00068984 -0.00519631 -0.000669923 -0.0234558 -0.018034 0.00477112 0.00089258 -0.00895766 -0.00205806
internal_weight=1120.86 870.958 415.511 455.447 249.906 376.349 129.551 45.0271 399.995 203.075 197.832 141.224 77.4536 23.1957 79.0985 39.2716 246.798 243.245 193.482 37.106 15.516 63.7704 50.7816 43.7999 54.258 16.1444 190.047 118.662 47.7408 35.5441
internal_count=4659 3033 1221 1812 1626 1404 566 249 1130 1241 1226 813 513 118 408 168 838 812 689 158 91 300 260 208 395 109 664 462 227 146
is_linear=0
shrinkage=0.02


Tree=27
num_leaves=31
num_cat=0
split_feature=7 7 9 0 7 1 1 10 11 10 5 2 10 8 1 1 9 9 5 8 1 6 7 1 7 7 7 9 9 8
split_gain=205.601 38.3241 28.3619 22.3387 21.6011 22.149 24.1045 21.2466 20.0574 16.9767 16.5948 16.0977 13.4827 16.8475 12.3759 11.7562 11.49 16.1631 11.4268 11.1236 11.0882 10.9721 10.6659 10.5916 10.3608 13.0425 12.4917 15.4594 11.0415 8.76427
threshold=1017.5833333333335 1007.5875000000002 0.50031482958899409 0.96683886033945965 1026.679166666667 0.72064045540576316 0.77756834408811348 -0.91280441984822247 2680.5000000000005 -0.95491199264177207 3.3500000000000001 2.5500000000000003 -0.67021075857419599 14.902083333333335 -0.42889193791248376 0.96897393274411414 -0.18616678233405623 -0.34270332596541603 3.1500000000000008 17.697916666666668 -0.65187484896379921 79.729166666666671 1008.0937500000001 0.86527520261780289 991.0562500000002 988.19375000000002 986.61875000000009 -0.93134733684247262 -0.55798652616600097 14.300000000000002
decision_type=2 2 2 2 2 2 2 2 2 2 2 2 2 2 2 2 2 2 2 2 2 2 2 2 2 2 2 2 2 2
left_child=1 2 9 7 5 11 -7 16 -5 18 12 -2 -9 -14 -4 23 17 -3 -1 -15 -19 -20 -12 -8 25 26 27 -11 -27 -17
right_child=4 3 14 8 -6 6 15 10 -10 24 22 -13 13 19 -16 29 -18 20 21 -21 -22 -23 -24 -25 -26 28 -28 -29 -30 -31
leaf_value=-0.021948429526574921 -0.01874748199045121 -0.022112220904530085 0.0048020322040873585 0.0018272142326341792 -0.028494999382680689 0.02237311492127286 -0.00090443162441653294 0.0058259437502160743 -0.032706777876161143 0.012497070675910096 -0.015875368401611509 0.0081647376107334118 -0.033796828314950796 0.011945469114477818 -0.029569002143160276 -0.015280691937684584 -0.01573923286677615 0.018867730801727194 -0.01095893817051229 -0.020213392549371469 -0.0055090649833765357 0.01324516300048164 0.0059314315381193477 -0.029348612785957965 0.012363895956505389 -0.034509681087361584 0.022583908969745915 -0.031640157087217451 0.0055387619493356055 0.010424841812323142
